<?xml version="1.0"?>
<opencv_storage>
<stage0>
  <maxWeakCount>17</maxWeakCount>
  <stageThreshold>-8.4212797880172729e-01</stageThreshold>
  <weakClassifiers>
    <_>
      <internalNodes>
        0 -1 70514 -1.9797351211309433e-02</internalNodes>
      <leafValues>
        7.4187725782394409e-01 1.9417475908994675e-02</leafValues></_>
    <_>
      <internalNodes>
        0 -1 71559 -2.5551726575940847e-03</internalNodes>
      <leafValues>
        -7.2484689950942993e-01 2.2193153202533722e-01</leafValues></_>
    <_>
      <internalNodes>
        0 -1 82980 -2.0198233425617218e-02</internalNodes>
      <leafValues>
        8.0159240961074829e-01 -1.9192996621131897e-01</leafValues></_>
    <_>
      <internalNodes>
        0 -1 81746 5.7745620142668486e-04</internalNodes>
      <leafValues>
        -4.3961599469184875e-01 3.7438559532165527e-01</leafValues></_>
    <_>
      <internalNodes>
        0 -1 71605 4.5235054567456245e-03</internalNodes>
      <leafValues>
        1.9544528424739838e-01 -6.6437941789627075e-01</leafValues></_>
    <_>
      <internalNodes>
        0 -1 80999 -1.2895898893475533e-02</internalNodes>
      <leafValues>
        5.5028504133224487e-01 -1.8379408121109009e-01</leafValues></_>
    <_>
      <internalNodes>
        0 -1 77434 -1.8139261752367020e-02</internalNodes>
      <leafValues>
        6.1417907476425171e-01 -1.8980917334556580e-01</leafValues></_>
    <_>
      <internalNodes>
        0 -1 81997 1.5300984960049391e-03</internalNodes>
      <leafValues>
        1.2783828377723694e-01 -8.4642958641052246e-01</leafValues></_>
    <_>
      <internalNodes>
        0 -1 71027 1.1045372486114502e-01</internalNodes>
      <leafValues>
        9.0483613312244415e-02 -7.8583180904388428e-01</leafValues></_>
    <_>
      <internalNodes>
        0 -1 82657 1.4979868428781629e-03</internalNodes>
      <leafValues>
        -1.9955709576606750e-01 4.8950448632240295e-01</leafValues></_>
    <_>
      <internalNodes>
        0 -1 82000 -1.8282852834090590e-03</internalNodes>
      <leafValues>
        -8.1684118509292603e-01 1.0090062022209167e-01</leafValues></_>
    <_>
      <internalNodes>
        0 -1 95543 -2.3512444458901882e-03</internalNodes>
      <leafValues>
        3.9437586069107056e-01 -2.0637726783752441e-01</leafValues></_>
    <_>
      <internalNodes>
        0 -1 86732 1.6369413351640105e-03</internalNodes>
      <leafValues>
        1.0350288450717926e-01 -8.7385350465774536e-01</leafValues></_>
    <_>
      <internalNodes>
        0 -1 60328 4.3096002191305161e-03</internalNodes>
      <leafValues>
        -1.7342236638069153e-01 4.4460314512252808e-01</leafValues></_>
    <_>
      <internalNodes>
        0 -1 80582 -2.6021476369351149e-03</internalNodes>
      <leafValues>
        2.5657644867897034e-01 -2.9099857807159424e-01</leafValues></_>
    <_>
      <internalNodes>
        0 -1 101660 -2.4549355730414391e-03</internalNodes>
      <leafValues>
        -6.3631290197372437e-01 1.2043552845716476e-01</leafValues></_>
    <_>
      <internalNodes>
        0 -1 101848 -4.2060459236381575e-05</internalNodes>
      <leafValues>
        2.6259469985961914e-01 -2.7582043409347534e-01</leafValues></_></weakClassifiers></stage0>
</opencv_storage>
