<?xml version="1.0"?>
<opencv_storage>
<cascade>
  <stageType>BOOST</stageType>
  <featureType>HAAR</featureType>
  <height>20</height>
  <width>20</width>
  <stageParams>
    <boostType>GAB</boostType>
    <minHitRate>9.9500000476837158e-01</minHitRate>
    <maxFalseAlarm>5.0000000000000000e-01</maxFalseAlarm>
    <weightTrimRate>9.4999999999999996e-01</weightTrimRate>
    <maxDepth>1</maxDepth>
    <maxWeakCount>100</maxWeakCount></stageParams>
  <featureParams>
    <maxCatCount>0</maxCatCount>
    <featSize>1</featSize>
    <mode>BASIC</mode></featureParams>
  <stageNum>12</stageNum>
  <stages>
    <!-- stage 0 -->
    <_>
      <maxWeakCount>31</maxWeakCount>
      <stageThreshold>-1.4163261651992798e+00</stageThreshold>
      <weakClassifiers>
        <_>
          <internalNodes>
            0 -1 23 5.9809822589159012e-02</internalNodes>
          <leafValues>
            -2.2818982601165771e-01 8.6641037464141846e-01</leafValues></_>
        <_>
          <internalNodes>
            0 -1 60 -2.0360417664051056e-02</internalNodes>
          <leafValues>
            7.0818132162094116e-01 -1.7612668871879578e-01</leafValues></_>
        <_>
          <internalNodes>
            0 -1 93 3.8501806557178497e-02</internalNodes>
          <leafValues>
            -9.6485607326030731e-02 7.2465181350708008e-01</leafValues></_>
        <_>
          <internalNodes>
            0 -1 633 -8.2939246203750372e-04</internalNodes>
          <leafValues>
            -6.4719408750534058e-01 1.1806283891201019e-01</leafValues></_>
        <_>
          <internalNodes>
            0 -1 633 6.5786205232143402e-04</internalNodes>
          <leafValues>
            1.7840144038200378e-01 -6.5147441625595093e-01</leafValues></_>
        <_>
          <internalNodes>
            0 -1 247 -4.7874869778752327e-03</internalNodes>
          <leafValues>
            2.9758736491203308e-01 -2.2477823495864868e-01</leafValues></_>
        <_>
          <internalNodes>
            0 -1 658 9.8491972312331200e-04</internalNodes>
          <leafValues>
            1.0796628147363663e-01 -4.8524892330169678e-01</leafValues></_>
        <_>
          <internalNodes>
            0 -1 658 -4.4963276013731956e-04</internalNodes>
          <leafValues>
            -4.0150362253189087e-01 1.9276402890682220e-01</leafValues></_>
        <_>
          <internalNodes>
            0 -1 19 -4.3257130309939384e-03</internalNodes>
          <leafValues>
            3.6877021193504333e-01 -1.8270359933376312e-01</leafValues></_>
        <_>
          <internalNodes>
            0 -1 32 2.3869771510362625e-02</internalNodes>
          <leafValues>
            -4.5832592993974686e-02 7.0380669832229614e-01</leafValues></_>
        <_>
          <internalNodes>
            0 -1 669 -3.5275181289762259e-04</internalNodes>
          <leafValues>
            2.6175042986869812e-01 -1.9475805759429932e-01</leafValues></_>
        <_>
          <internalNodes>
            0 -1 521 9.7656408324837685e-03</internalNodes>
          <leafValues>
            -1.4908562600612640e-01 4.1006091237068176e-01</leafValues></_>
        <_>
          <internalNodes>
            0 -1 686 -2.1423697471618652e-03</internalNodes>
          <leafValues>
            -4.2851811647415161e-01 9.9257878959178925e-02</leafValues></_>
        <_>
          <internalNodes>
            0 -1 478 2.4863071739673615e-02</internalNodes>
          <leafValues>
            -1.2180697172880173e-01 3.4962135553359985e-01</leafValues></_>
        <_>
          <internalNodes>
            0 -1 665 1.8267412669956684e-03</internalNodes>
          <leafValues>
            8.0884240567684174e-02 -4.8745837807655334e-01</leafValues></_>
        <_>
          <internalNodes>
            0 -1 0 -8.5232616402208805e-04</internalNodes>
          <leafValues>
            2.2386252880096436e-01 -1.6186657547950745e-01</leafValues></_>
        <_>
          <internalNodes>
            0 -1 680 -1.3117147609591484e-03</internalNodes>
          <leafValues>
            -5.4761874675750732e-01 6.4820125699043274e-02</leafValues></_>
        <_>
          <internalNodes>
            0 -1 348 -2.4033028632402420e-02</internalNodes>
          <leafValues>
            3.4715276956558228e-01 -1.1130581051111221e-01</leafValues></_>
        <_>
          <internalNodes>
            0 -1 470 2.1857637912034988e-03</internalNodes>
          <leafValues>
            -1.6066335141658783e-01 2.4232508242130280e-01</leafValues></_>
        <_>
          <internalNodes>
            0 -1 116 1.9877990707755089e-03</internalNodes>
          <leafValues>
            8.8860668241977692e-02 -4.2382457852363586e-01</leafValues></_>
        <_>
          <internalNodes>
            0 -1 220 -1.0478638112545013e-02</internalNodes>
          <leafValues>
            2.3925492167472839e-01 -1.4068050682544708e-01</leafValues></_>
        <_>
          <internalNodes>
            0 -1 115 8.9550367556512356e-04</internalNodes>
          <leafValues>
            1.2109211832284927e-01 -2.8425675630569458e-01</leafValues></_>
        <_>
          <internalNodes>
            0 -1 352 -1.4904123730957508e-02</internalNodes>
          <leafValues>
            3.0914843082427979e-01 -1.0627657175064087e-01</leafValues></_>
        <_>
          <internalNodes>
            0 -1 222 1.5429884660989046e-04</internalNodes>
          <leafValues>
            1.3913257420063019e-01 -2.4677598476409912e-01</leafValues></_>
        <_>
          <internalNodes>
            0 -1 533 9.5191400032490492e-04</internalNodes>
          <leafValues>
            -1.4882801473140717e-01 2.1971751749515533e-01</leafValues></_>
        <_>
          <internalNodes>
            0 -1 492 -1.5856143087148666e-02</internalNodes>
          <leafValues>
            3.4340825676918030e-01 -1.1569884419441223e-01</leafValues></_>
        <_>
          <internalNodes>
            0 -1 201 2.2709101438522339e-02</internalNodes>
          <leafValues>
            -5.6576970964670181e-02 5.5866277217864990e-01</leafValues></_>
        <_>
          <internalNodes>
            0 -1 565 -1.7103112768381834e-03</internalNodes>
          <leafValues>
            -5.6081408262252808e-01 6.9005347788333893e-02</leafValues></_>
        <_>
          <internalNodes>
            0 -1 385 -7.4468925595283508e-03</internalNodes>
          <leafValues>
            3.3697232604026794e-01 -1.0527935624122620e-01</leafValues></_>
        <_>
          <internalNodes>
            0 -1 682 -1.1080708354711533e-03</internalNodes>
          <leafValues>
            -4.7241503000259399e-01 7.6403185725212097e-02</leafValues></_>
        <_>
          <internalNodes>
            0 -1 647 3.3021913841366768e-03</internalNodes>
          <leafValues>
            4.5199390500783920e-02 -7.1170264482498169e-01</leafValues></_></weakClassifiers></_>
    <!-- stage 1 -->
    <_>
      <maxWeakCount>39</maxWeakCount>
      <stageThreshold>-1.4887464046478271e+00</stageThreshold>
      <weakClassifiers>
        <_>
          <internalNodes>
            0 -1 24 8.2237839698791504e-02</internalNodes>
          <leafValues>
            -1.8169583380222321e-01 8.8859415054321289e-01</leafValues></_>
        <_>
          <internalNodes>
            0 -1 103 2.2683240473270416e-02</internalNodes>
          <leafValues>
            -1.2361988425254822e-01 7.1012550592422485e-01</leafValues></_>
        <_>
          <internalNodes>
            0 -1 153 -1.4736351370811462e-01</internalNodes>
          <leafValues>
            5.6726109981536865e-01 -1.2358911335468292e-01</leafValues></_>
        <_>
          <internalNodes>
            0 -1 145 -2.0619757473468781e-02</internalNodes>
          <leafValues>
            4.9881827831268311e-01 -1.9050577282905579e-01</leafValues></_>
        <_>
          <internalNodes>
            0 -1 628 -1.4263133052736521e-03</internalNodes>
          <leafValues>
            -6.4041036367416382e-01 1.2202669680118561e-01</leafValues></_>
        <_>
          <internalNodes>
            0 -1 632 -8.9283427223563194e-04</internalNodes>
          <leafValues>
            -6.0113281011581421e-01 9.2911154031753540e-02</leafValues></_>
        <_>
          <internalNodes>
            0 -1 570 -5.4124357120599598e-05</internalNodes>
          <leafValues>
            2.2187112271785736e-01 -2.8827524185180664e-01</leafValues></_>
        <_>
          <internalNodes>
            0 -1 472 1.4768397435545921e-02</internalNodes>
          <leafValues>
            -1.9541054964065552e-01 3.3299160003662109e-01</leafValues></_>
        <_>
          <internalNodes>
            0 -1 129 -3.0493086203932762e-02</internalNodes>
          <leafValues>
            4.5473986864089966e-01 -9.5291547477245331e-02</leafValues></_>
        <_>
          <internalNodes>
            0 -1 661 -8.5407379083335400e-04</internalNodes>
          <leafValues>
            -4.3847611546516418e-01 1.1322690546512604e-01</leafValues></_>
        <_>
          <internalNodes>
            0 -1 380 1.9781388342380524e-02</internalNodes>
          <leafValues>
            -1.2684488296508789e-01 3.9891383051872253e-01</leafValues></_>
        <_>
          <internalNodes>
            0 -1 7 3.7170392461121082e-03</internalNodes>
          <leafValues>
            -1.9204774498939514e-01 2.6570671796798706e-01</leafValues></_>
        <_>
          <internalNodes>
            0 -1 661 5.5709149455651641e-04</internalNodes>
          <leafValues>
            1.3288046419620514e-01 -3.9986574649810791e-01</leafValues></_>
        <_>
          <internalNodes>
            0 -1 477 -1.6968281939625740e-02</internalNodes>
          <leafValues>
            3.4443008899688721e-01 -1.2993158400058746e-01</leafValues></_>
        <_>
          <internalNodes>
            0 -1 239 8.4872581064701080e-03</internalNodes>
          <leafValues>
            -1.0833885520696640e-01 3.7474957108497620e-01</leafValues></_>
        <_>
          <internalNodes>
            0 -1 110 8.0101843923330307e-04</internalNodes>
          <leafValues>
            1.0530687868595123e-01 -4.4079107046127319e-01</leafValues></_>
        <_>
          <internalNodes>
            0 -1 669 -6.7092460813000798e-04</internalNodes>
          <leafValues>
            2.6658037304878235e-01 -1.7597758769989014e-01</leafValues></_>
        <_>
          <internalNodes>
            0 -1 531 1.2969293165951967e-03</internalNodes>
          <leafValues>
            7.1637064218521118e-02 -5.3146177530288696e-01</leafValues></_>
        <_>
          <internalNodes>
            0 -1 414 -1.3392065651714802e-02</internalNodes>
          <leafValues>
            3.3033254742622375e-01 -1.1136221140623093e-01</leafValues></_>
        <_>
          <internalNodes>
            0 -1 272 -2.5042966008186340e-02</internalNodes>
          <leafValues>
            4.7816830873489380e-01 -8.5958682000637054e-02</leafValues></_>
        <_>
          <internalNodes>
            0 -1 685 1.6271184431388974e-03</internalNodes>
          <leafValues>
            7.7636674046516418e-02 -4.9074670672416687e-01</leafValues></_>
        <_>
          <internalNodes>
            0 -1 685 -3.1554372981190681e-03</internalNodes>
          <leafValues>
            -7.2119611501693726e-01 4.4831853359937668e-02</leafValues></_>
        <_>
          <internalNodes>
            0 -1 618 3.4284926950931549e-03</internalNodes>
          <leafValues>
            -1.3365346193313599e-01 2.8580570220947266e-01</leafValues></_>
        <_>
          <internalNodes>
            0 -1 673 -2.2102042566984892e-04</internalNodes>
          <leafValues>
            2.4966098368167877e-01 -1.7325767874717712e-01</leafValues></_>
        <_>
          <internalNodes>
            0 -1 181 1.1430783197283745e-03</internalNodes>
          <leafValues>
            1.0892722755670547e-01 -3.2350295782089233e-01</leafValues></_>
        <_>
          <internalNodes>
            0 -1 329 9.5495544373989105e-03</internalNodes>
          <leafValues>
            -1.1327509582042694e-01 3.0174177885055542e-01</leafValues></_>
        <_>
          <internalNodes>
            0 -1 367 -5.8381254784762859e-03</internalNodes>
          <leafValues>
            2.7620679140090942e-01 -1.4412161707878113e-01</leafValues></_>
        <_>
          <internalNodes>
            0 -1 216 -5.2791344933211803e-04</internalNodes>
          <leafValues>
            -2.7977818250656128e-01 1.1357866227626801e-01</leafValues></_>
        <_>
          <internalNodes>
            0 -1 587 -3.0181743204593658e-03</internalNodes>
          <leafValues>
            -4.8177886009216309e-01 6.2152180820703506e-02</leafValues></_>
        <_>
          <internalNodes>
            0 -1 504 -2.2703295107930899e-03</internalNodes>
          <leafValues>
            2.3722939193248749e-01 -1.4653807878494263e-01</leafValues></_>
        <_>
          <internalNodes>
            0 -1 13 -8.8251437991857529e-03</internalNodes>
          <leafValues>
            3.4286582469940186e-01 -9.1903045773506165e-02</leafValues></_>
        <_>
          <internalNodes>
            0 -1 35 1.7757881432771683e-02</internalNodes>
          <leafValues>
            -6.1799410730600357e-02 5.0568258762359619e-01</leafValues></_>
        <_>
          <internalNodes>
            0 -1 614 1.6754274256527424e-03</internalNodes>
          <leafValues>
            1.0113841295242310e-01 -3.5712879896163940e-01</leafValues></_>
        <_>
          <internalNodes>
            0 -1 567 -3.8748933002352715e-03</internalNodes>
          <leafValues>
            -8.3472961187362671e-01 3.6354165524244308e-02</leafValues></_>
        <_>
          <internalNodes>
            0 -1 238 -1.0047812946140766e-02</internalNodes>
          <leafValues>
            4.0348121523857117e-01 -8.8679872453212738e-02</leafValues></_>
        <_>
          <internalNodes>
            0 -1 402 1.2916119769215584e-02</internalNodes>
          <leafValues>
            -9.0755790472030640e-02 3.2844620943069458e-01</leafValues></_>
        <_>
          <internalNodes>
            0 -1 681 -1.0361642343923450e-03</internalNodes>
          <leafValues>
            -3.8286945223808289e-01 8.0075599253177643e-02</leafValues></_>
        <_>
          <internalNodes>
            0 -1 274 -3.1385377049446106e-02</internalNodes>
          <leafValues>
            3.8405832648277283e-01 -8.1761054694652557e-02</leafValues></_>
        <_>
          <internalNodes>
            0 -1 311 4.6259224414825439e-02</internalNodes>
          <leafValues>
            -7.6763600111007690e-02 3.4772029519081116e-01</leafValues></_></weakClassifiers></_>
    <!-- stage 2 -->
    <_>
      <maxWeakCount>51</maxWeakCount>
      <stageThreshold>-1.3419533967971802e+00</stageThreshold>
      <weakClassifiers>
        <_>
          <internalNodes>
            0 -1 70 1.6512032598257065e-02</internalNodes>
          <leafValues>
            -2.1443866193294525e-01 7.2972971200942993e-01</leafValues></_>
        <_>
          <internalNodes>
            0 -1 63 1.8500439822673798e-02</internalNodes>
          <leafValues>
            -1.8623130023479462e-01 6.0407978296279907e-01</leafValues></_>
        <_>
          <internalNodes>
            0 -1 643 5.7413941249251366e-04</internalNodes>
          <leafValues>
            1.6299939155578613e-01 -4.9866333603858948e-01</leafValues></_>
        <_>
          <internalNodes>
            0 -1 643 -6.4246356487274170e-04</internalNodes>
          <leafValues>
            -5.7009577751159668e-01 1.3188888132572174e-01</leafValues></_>
        <_>
          <internalNodes>
            0 -1 58 -6.0832626186311245e-03</internalNodes>
          <leafValues>
            4.0071004629135132e-01 -1.8750886619091034e-01</leafValues></_>
        <_>
          <internalNodes>
            0 -1 142 -2.6422817260026932e-02</internalNodes>
          <leafValues>
            4.9823886156082153e-01 -1.4627668261528015e-01</leafValues></_>
        <_>
          <internalNodes>
            0 -1 466 -4.4979788362979889e-03</internalNodes>
          <leafValues>
            2.8315517306327820e-01 -2.3328068852424622e-01</leafValues></_>
        <_>
          <internalNodes>
            0 -1 627 -1.4374386519193649e-03</internalNodes>
          <leafValues>
            -6.2215214967727661e-01 6.2559463083744049e-02</leafValues></_>
        <_>
          <internalNodes>
            0 -1 246 -1.6611379105597734e-03</internalNodes>
          <leafValues>
            1.6476234793663025e-01 -2.1369172632694244e-01</leafValues></_>
        <_>
          <internalNodes>
            0 -1 648 -2.9940640088170767e-03</internalNodes>
          <leafValues>
            -5.6154733896255493e-01 6.2921859323978424e-02</leafValues></_>
        <_>
          <internalNodes>
            0 -1 480 5.2989565301686525e-04</internalNodes>
          <leafValues>
            -1.5922290086746216e-01 2.1262423694133759e-01</leafValues></_>
        <_>
          <internalNodes>
            0 -1 688 -1.2040366418659687e-03</internalNodes>
          <leafValues>
            -4.0941777825355530e-01 7.2540752589702606e-02</leafValues></_>
        <_>
          <internalNodes>
            0 -1 407 -5.6787189096212387e-03</internalNodes>
          <leafValues>
            2.6708483695983887e-01 -1.2107196450233459e-01</leafValues></_>
        <_>
          <internalNodes>
            0 -1 555 2.9115849174559116e-03</internalNodes>
          <leafValues>
            -8.5403487086296082e-02 4.1076770424842834e-01</leafValues></_>
        <_>
          <internalNodes>
            0 -1 657 1.5329751186072826e-03</internalNodes>
          <leafValues>
            9.8756253719329834e-02 -3.3268737792968750e-01</leafValues></_>
        <_>
          <internalNodes>
            0 -1 339 1.0911689139902592e-02</internalNodes>
          <leafValues>
            -1.0491437464952469e-01 3.3150106668472290e-01</leafValues></_>
        <_>
          <internalNodes>
            0 -1 335 1.3677093200385571e-02</internalNodes>
          <leafValues>
            -8.3777263760566711e-02 3.5194191336631775e-01</leafValues></_>
        <_>
          <internalNodes>
            0 -1 453 8.1976326182484627e-03</internalNodes>
          <leafValues>
            -1.3441295921802521e-01 2.4638129770755768e-01</leafValues></_>
        <_>
          <internalNodes>
            0 -1 454 -1.3990061357617378e-02</internalNodes>
          <leafValues>
            3.4069880843162537e-01 -1.2114321440458298e-01</leafValues></_>
        <_>
          <internalNodes>
            0 -1 219 1.4465651474893093e-03</internalNodes>
          <leafValues>
            9.9543541669845581e-02 -3.5519167780876160e-01</leafValues></_>
        <_>
          <internalNodes>
            0 -1 163 -1.7918387893587351e-03</internalNodes>
          <leafValues>
            -3.5547226667404175e-01 8.3142735064029694e-02</leafValues></_>
        <_>
          <internalNodes>
            0 -1 433 6.4166914671659470e-03</internalNodes>
          <leafValues>
            -1.1939501017332077e-01 2.7868580818176270e-01</leafValues></_>
        <_>
          <internalNodes>
            0 -1 575 -8.6335069499909878e-04</internalNodes>
          <leafValues>
            1.6348691284656525e-01 -1.8053753674030304e-01</leafValues></_>
        <_>
          <internalNodes>
            0 -1 563 -2.6456031948328018e-02</internalNodes>
          <leafValues>
            -4.1513949632644653e-01 9.4354771077632904e-02</leafValues></_>
        <_>
          <internalNodes>
            0 -1 159 -2.9749173671007156e-02</internalNodes>
          <leafValues>
            2.3256580531597137e-01 -1.1710522323846817e-01</leafValues></_>
        <_>
          <internalNodes>
            0 -1 71 -3.7120975553989410e-02</internalNodes>
          <leafValues>
            3.8966104388237000e-01 -7.7710546553134918e-02</leafValues></_>
        <_>
          <internalNodes>
            0 -1 505 -8.4838569164276123e-03</internalNodes>
          <leafValues>
            2.3490512371063232e-01 -1.1945725977420807e-01</leafValues></_>
        <_>
          <internalNodes>
            0 -1 542 4.6750417095609009e-04</internalNodes>
          <leafValues>
            -1.3153356313705444e-01 2.1357741951942444e-01</leafValues></_>
        <_>
          <internalNodes>
            0 -1 539 1.0452545247972012e-03</internalNodes>
          <leafValues>
            7.3180593550205231e-02 -3.8913783431053162e-01</leafValues></_>
        <_>
          <internalNodes>
            0 -1 448 -3.5891914740204811e-03</internalNodes>
          <leafValues>
            2.4171835184097290e-01 -1.1690635234117508e-01</leafValues></_>
        <_>
          <internalNodes>
            0 -1 61 6.2924968078732491e-03</internalNodes>
          <leafValues>
            -1.3932286202907562e-01 1.9089822471141815e-01</leafValues></_>
        <_>
          <internalNodes>
            0 -1 528 2.0988415926694870e-03</internalNodes>
          <leafValues>
            4.5486155897378922e-02 -6.2450647354125977e-01</leafValues></_>
        <_>
          <internalNodes>
            0 -1 561 -1.6040217597037554e-03</internalNodes>
          <leafValues>
            2.5125023722648621e-01 -1.1591367423534393e-01</leafValues></_>
        <_>
          <internalNodes>
            0 -1 151 5.2237045019865036e-03</internalNodes>
          <leafValues>
            -1.0966400802135468e-01 2.8912210464477539e-01</leafValues></_>
        <_>
          <internalNodes>
            0 -1 455 1.0317316278815269e-02</internalNodes>
          <leafValues>
            6.0184277594089508e-02 -4.4221082329750061e-01</leafValues></_>
        <_>
          <internalNodes>
            0 -1 20 2.9314002022147179e-02</internalNodes>
          <leafValues>
            -5.1240913569927216e-02 5.4262638092041016e-01</leafValues></_>
        <_>
          <internalNodes>
            0 -1 667 -3.0833077616989613e-03</internalNodes>
          <leafValues>
            -5.2978175878524780e-01 4.9969255924224854e-02</leafValues></_>
        <_>
          <internalNodes>
            0 -1 628 2.6894449256360531e-03</internalNodes>
          <leafValues>
            3.4895595163106918e-02 -6.3494813442230225e-01</leafValues></_>
        <_>
          <internalNodes>
            0 -1 160 -2.1830435842275620e-02</internalNodes>
          <leafValues>
            2.5479823350906372e-01 -9.7160242497920990e-02</leafValues></_>
        <_>
          <internalNodes>
            0 -1 123 1.6573453322052956e-03</internalNodes>
          <leafValues>
            8.8562682271003723e-02 -2.8315770626068115e-01</leafValues></_>
        <_>
          <internalNodes>
            0 -1 65 -3.6995066329836845e-03</internalNodes>
          <leafValues>
            2.6236969232559204e-01 -9.2537820339202881e-02</leafValues></_>
        <_>
          <internalNodes>
            0 -1 122 -2.2118315100669861e-03</internalNodes>
          <leafValues>
            -3.4128218889236450e-01 7.9918265342712402e-02</leafValues></_>
        <_>
          <internalNodes>
            0 -1 523 3.7350549246184528e-04</internalNodes>
          <leafValues>
            -1.2767162919044495e-01 1.9612272083759308e-01</leafValues></_>
        <_>
          <internalNodes>
            0 -1 314 -4.4538192451000214e-02</internalNodes>
          <leafValues>
            3.6214002966880798e-01 -6.2049288302659988e-02</leafValues></_>
        <_>
          <internalNodes>
            0 -1 271 9.4657558947801590e-03</internalNodes>
          <leafValues>
            -7.4770227074623108e-02 3.1303879618644714e-01</leafValues></_>
        <_>
          <internalNodes>
            0 -1 373 6.7363739944994450e-03</internalNodes>
          <leafValues>
            5.8363240212202072e-02 -4.6247491240501404e-01</leafValues></_>
        <_>
          <internalNodes>
            0 -1 381 -4.4067804701626301e-03</internalNodes>
          <leafValues>
            2.4859946966171265e-01 -9.1779664158821106e-02</leafValues></_>
        <_>
          <internalNodes>
            0 -1 308 2.9899690300226212e-02</internalNodes>
          <leafValues>
            -6.1619240790605545e-02 4.3720370531082153e-01</leafValues></_>
        <_>
          <internalNodes>
            0 -1 376 -3.8400162011384964e-03</internalNodes>
          <leafValues>
            -5.4939222335815430e-01 4.7544453293085098e-02</leafValues></_>
        <_>
          <internalNodes>
            0 -1 515 3.9632334373891354e-03</internalNodes>
          <leafValues>
            -1.1821915209293365e-01 1.9741013646125793e-01</leafValues></_>
        <_>
          <internalNodes>
            0 -1 616 2.0333027467131615e-02</internalNodes>
          <leafValues>
            -5.0495676696300507e-02 4.7522357106208801e-01</leafValues></_></weakClassifiers></_>
    <!-- stage 3 -->
    <_>
      <maxWeakCount>49</maxWeakCount>
      <stageThreshold>-1.2165609598159790e+00</stageThreshold>
      <weakClassifiers>
        <_>
          <internalNodes>
            0 -1 24 9.6621192991733551e-02</internalNodes>
          <leafValues>
            -1.3400423526763916e-01 8.2565790414810181e-01</leafValues></_>
        <_>
          <internalNodes>
            0 -1 100 7.0907520130276680e-03</internalNodes>
          <leafValues>
            -1.4345870912075043e-01 5.0076693296432495e-01</leafValues></_>
        <_>
          <internalNodes>
            0 -1 640 -1.0286965407431126e-03</internalNodes>
          <leafValues>
            -6.3164478540420532e-01 1.1666815727949142e-01</leafValues></_>
        <_>
          <internalNodes>
            0 -1 640 6.3322932692244649e-04</internalNodes>
          <leafValues>
            1.0925088822841644e-01 -5.5135011672973633e-01</leafValues></_>
        <_>
          <internalNodes>
            0 -1 516 8.2816909998655319e-03</internalNodes>
          <leafValues>
            -2.0141272246837616e-01 2.7778190374374390e-01</leafValues></_>
        <_>
          <internalNodes>
            0 -1 519 -3.0108182691037655e-03</internalNodes>
          <leafValues>
            2.7009886503219604e-01 -2.0879298448562622e-01</leafValues></_>
        <_>
          <internalNodes>
            0 -1 10 1.8702657893300056e-02</internalNodes>
          <leafValues>
            -1.2356796115636826e-01 5.0128930807113647e-01</leafValues></_>
        <_>
          <internalNodes>
            0 -1 476 8.8116638362407684e-03</internalNodes>
          <leafValues>
            -1.3943752646446228e-01 3.2934775948524475e-01</leafValues></_>
        <_>
          <internalNodes>
            0 -1 601 2.9390770941972733e-03</internalNodes>
          <leafValues>
            1.1291351169347763e-01 -4.6887102723121643e-01</leafValues></_>
        <_>
          <internalNodes>
            0 -1 261 -7.1558421477675438e-03</internalNodes>
          <leafValues>
            2.6284736394882202e-01 -1.7188841104507446e-01</leafValues></_>
        <_>
          <internalNodes>
            0 -1 660 2.0427533891052008e-03</internalNodes>
          <leafValues>
            9.6756763756275177e-02 -4.7092014551162720e-01</leafValues></_>
        <_>
          <internalNodes>
            0 -1 210 5.2893481915816665e-04</internalNodes>
          <leafValues>
            9.5778055489063263e-02 -3.8675004243850708e-01</leafValues></_>
        <_>
          <internalNodes>
            0 -1 482 -1.1250451207160950e-02</internalNodes>
          <leafValues>
            3.0394393205642700e-01 -1.3133479654788971e-01</leafValues></_>
        <_>
          <internalNodes>
            0 -1 483 1.2102995067834854e-02</internalNodes>
          <leafValues>
            -1.4842320978641510e-01 3.0392721295356750e-01</leafValues></_>
        <_>
          <internalNodes>
            0 -1 47 4.5134946703910828e-03</internalNodes>
          <leafValues>
            -1.0363830626010895e-01 3.1979033350944519e-01</leafValues></_>
        <_>
          <internalNodes>
            0 -1 653 -9.9593959748744965e-04</internalNodes>
          <leafValues>
            -4.3788561224937439e-01 6.8738132715225220e-02</leafValues></_>
        <_>
          <internalNodes>
            0 -1 384 -2.7791054453700781e-03</internalNodes>
          <leafValues>
            2.2437472641468048e-01 -1.5023821592330933e-01</leafValues></_>
        <_>
          <internalNodes>
            0 -1 382 1.3542167842388153e-02</internalNodes>
          <leafValues>
            -1.1626264452934265e-01 2.7085173130035400e-01</leafValues></_>
        <_>
          <internalNodes>
            0 -1 493 3.0769770964980125e-03</internalNodes>
          <leafValues>
            8.1113800406455994e-02 -4.2861881852149963e-01</leafValues></_>
        <_>
          <internalNodes>
            0 -1 14 1.0464771185070276e-03</internalNodes>
          <leafValues>
            -1.3816979527473450e-01 2.1228343248367310e-01</leafValues></_>
        <_>
          <internalNodes>
            0 -1 377 -3.8478900678455830e-03</internalNodes>
          <leafValues>
            2.8602579236030579e-01 -1.0286153852939606e-01</leafValues></_>
        <_>
          <internalNodes>
            0 -1 203 5.9073287993669510e-03</internalNodes>
          <leafValues>
            4.1736595332622528e-02 -6.9126456975936890e-01</leafValues></_>
        <_>
          <internalNodes>
            0 -1 371 -6.4850240014493465e-03</internalNodes>
          <leafValues>
            2.0062774419784546e-01 -1.3104663789272308e-01</leafValues></_>
        <_>
          <internalNodes>
            0 -1 330 -1.4892833307385445e-02</internalNodes>
          <leafValues>
            2.0970612764358521e-01 -1.4174936711788177e-01</leafValues></_>
        <_>
          <internalNodes>
            0 -1 119 -1.8313513137400150e-03</internalNodes>
          <leafValues>
            -4.2312613129615784e-01 6.4731985330581665e-02</leafValues></_>
        <_>
          <internalNodes>
            0 -1 306 1.9299421459436417e-02</internalNodes>
          <leafValues>
            -8.2918077707290649e-02 3.2572132349014282e-01</leafValues></_>
        <_>
          <internalNodes>
            0 -1 345 -1.4393047895282507e-03</internalNodes>
          <leafValues>
            2.0564822852611542e-01 -1.3790388405323029e-01</leafValues></_>
        <_>
          <internalNodes>
            0 -1 660 -2.9361215420067310e-03</internalNodes>
          <leafValues>
            -4.7605592012405396e-01 5.6980241090059280e-02</leafValues></_>
        <_>
          <internalNodes>
            0 -1 127 -4.4285338371992111e-03</internalNodes>
          <leafValues>
            -3.8300389051437378e-01 6.5535284578800201e-02</leafValues></_>
        <_>
          <internalNodes>
            0 -1 404 -2.0698048174381256e-03</internalNodes>
          <leafValues>
            2.1137776970863342e-01 -1.2766490876674652e-01</leafValues></_>
        <_>
          <internalNodes>
            0 -1 413 -3.2643650192767382e-03</internalNodes>
          <leafValues>
            -5.4643744230270386e-01 4.8133291304111481e-02</leafValues></_>
        <_>
          <internalNodes>
            0 -1 378 4.1186882299371064e-04</internalNodes>
          <leafValues>
            -1.4564938843250275e-01 1.8486802279949188e-01</leafValues></_>
        <_>
          <internalNodes>
            0 -1 434 7.8984518768265843e-04</internalNodes>
          <leafValues>
            -1.0633040964603424e-01 2.3644904792308807e-01</leafValues></_>
        <_>
          <internalNodes>
            0 -1 613 -1.1837328784167767e-03</internalNodes>
          <leafValues>
            -3.4574350714683533e-01 8.1399999558925629e-02</leafValues></_>
        <_>
          <internalNodes>
            0 -1 222 -6.3042505644261837e-05</internalNodes>
          <leafValues>
            1.4803136885166168e-01 -1.6754177212715149e-01</leafValues></_>
        <_>
          <internalNodes>
            0 -1 511 1.7197710694745183e-03</internalNodes>
          <leafValues>
            8.7461039423942566e-02 -2.9357445240020752e-01</leafValues></_>
        <_>
          <internalNodes>
            0 -1 351 -8.7856240570545197e-03</internalNodes>
          <leafValues>
            2.2006024420261383e-01 -1.2093502283096313e-01</leafValues></_>
        <_>
          <internalNodes>
            0 -1 89 -1.1149343848228455e-01</internalNodes>
          <leafValues>
            2.8325271606445312e-01 -9.5707200467586517e-02</leafValues></_>
        <_>
          <internalNodes>
            0 -1 68 2.6884454488754272e-01</internalNodes>
          <leafValues>
            -7.1912333369255066e-02 4.0025302767753601e-01</leafValues></_>
        <_>
          <internalNodes>
            0 -1 597 2.4001060519367456e-03</internalNodes>
          <leafValues>
            -1.4271298050880432e-01 1.7010533809661865e-01</leafValues></_>
        <_>
          <internalNodes>
            0 -1 4 3.0576363205909729e-03</internalNodes>
          <leafValues>
            -1.0624489188194275e-01 2.3466628789901733e-01</leafValues></_>
        <_>
          <internalNodes>
            0 -1 31 -3.6892024800181389e-03</internalNodes>
          <leafValues>
            2.4020242691040039e-01 -1.0815988481044769e-01</leafValues></_>
        <_>
          <internalNodes>
            0 -1 364 -2.3698277771472931e-02</internalNodes>
          <leafValues>
            -5.7528591156005859e-01 4.4585455209016800e-02</leafValues></_>
        <_>
          <internalNodes>
            0 -1 557 1.4813810121268034e-03</internalNodes>
          <leafValues>
            -1.4387921988964081e-01 1.7557236552238464e-01</leafValues></_>
        <_>
          <internalNodes>
            0 -1 188 -1.1219544103369117e-03</internalNodes>
          <leafValues>
            -2.4286390841007233e-01 9.8179519176483154e-02</leafValues></_>
        <_>
          <internalNodes>
            0 -1 187 4.6864256728440523e-04</internalNodes>
          <leafValues>
            1.0566402971744537e-01 -2.4968670308589935e-01</leafValues></_>
        <_>
          <internalNodes>
            0 -1 166 -1.0483850724995136e-02</internalNodes>
          <leafValues>
            2.6295906305313110e-01 -1.0905306041240692e-01</leafValues></_>
        <_>
          <internalNodes>
            0 -1 588 2.1531483798753470e-04</internalNodes>
          <leafValues>
            -1.2003749608993530e-01 2.1489061415195465e-01</leafValues></_>
        <_>
          <internalNodes>
            0 -1 536 -1.3183930888772011e-02</internalNodes>
          <leafValues>
            3.0245071649551392e-01 -8.5956707596778870e-02</leafValues></_></weakClassifiers></_>
    <!-- stage 4 -->
    <_>
      <maxWeakCount>62</maxWeakCount>
      <stageThreshold>-1.2245340347290039e+00</stageThreshold>
      <weakClassifiers>
        <_>
          <internalNodes>
            0 -1 140 1.4036174863576889e-02</internalNodes>
          <leafValues>
            -1.3617141544818878e-01 7.2235751152038574e-01</leafValues></_>
        <_>
          <internalNodes>
            0 -1 38 6.3012585043907166e-02</internalNodes>
          <leafValues>
            -1.4737346768379211e-01 5.6133711338043213e-01</leafValues></_>
        <_>
          <internalNodes>
            0 -1 500 -3.5250245127826929e-04</internalNodes>
          <leafValues>
            2.6834106445312500e-01 -2.5538039207458496e-01</leafValues></_>
        <_>
          <internalNodes>
            0 -1 578 7.2168954648077488e-04</internalNodes>
          <leafValues>
            7.7566266059875488e-02 -5.3076481819152832e-01</leafValues></_>
        <_>
          <internalNodes>
            0 -1 94 -9.5316302031278610e-03</internalNodes>
          <leafValues>
            3.7224727869033813e-01 -1.4718709886074066e-01</leafValues></_>
        <_>
          <internalNodes>
            0 -1 583 -1.7316523008048534e-03</internalNodes>
          <leafValues>
            -5.8741796016693115e-01 8.7270542979240417e-02</leafValues></_>
        <_>
          <internalNodes>
            0 -1 562 1.7641749000176787e-03</internalNodes>
          <leafValues>
            -1.7312262952327728e-01 2.9449450969696045e-01</leafValues></_>
        <_>
          <internalNodes>
            0 -1 669 -1.2647965922951698e-03</internalNodes>
          <leafValues>
            2.9544517397880554e-01 -1.3194461166858673e-01</leafValues></_>
        <_>
          <internalNodes>
            0 -1 633 4.1367590893059969e-04</internalNodes>
          <leafValues>
            1.1099454015493393e-01 -3.3960151672363281e-01</leafValues></_>
        <_>
          <internalNodes>
            0 -1 394 2.4978073313832283e-02</internalNodes>
          <leafValues>
            -9.0418249368667603e-02 3.9745607972145081e-01</leafValues></_>
        <_>
          <internalNodes>
            0 -1 447 -4.2537302942946553e-04</internalNodes>
          <leafValues>
            2.2244478762149811e-01 -1.4321105182170868e-01</leafValues></_>
        <_>
          <internalNodes>
            0 -1 645 9.3374901916831732e-04</internalNodes>
          <leafValues>
            7.4295170605182648e-02 -4.3390613794326782e-01</leafValues></_>
        <_>
          <internalNodes>
            0 -1 645 -6.4768455922603607e-04</internalNodes>
          <leafValues>
            -3.6548593640327454e-01 9.0860687196254730e-02</leafValues></_>
        <_>
          <internalNodes>
            0 -1 625 -9.1595221310853958e-03</internalNodes>
          <leafValues>
            3.4833425283432007e-01 -1.0446616262197495e-01</leafValues></_>
        <_>
          <internalNodes>
            0 -1 207 -6.3494697213172913e-02</internalNodes>
          <leafValues>
            2.8871545195579529e-01 -1.0816500335931778e-01</leafValues></_>
        <_>
          <internalNodes>
            0 -1 520 3.3239538315683603e-03</internalNodes>
          <leafValues>
            -1.0258882492780685e-01 3.1119918823242188e-01</leafValues></_>
        <_>
          <internalNodes>
            0 -1 117 -2.5334339588880539e-03</internalNodes>
          <leafValues>
            -3.9328509569168091e-01 8.0327689647674561e-02</leafValues></_>
        <_>
          <internalNodes>
            0 -1 101 1.9660793244838715e-02</internalNodes>
          <leafValues>
            -6.6106401383876801e-02 5.0627166032791138e-01</leafValues></_>
        <_>
          <internalNodes>
            0 -1 162 4.2127299821004272e-04</internalNodes>
          <leafValues>
            1.2309043854475021e-01 -2.9100164771080017e-01</leafValues></_>
        <_>
          <internalNodes>
            0 -1 644 2.3220912553369999e-03</internalNodes>
          <leafValues>
            -1.2772135436534882e-01 2.4734333157539368e-01</leafValues></_>
        <_>
          <internalNodes>
            0 -1 469 1.0745115578174591e-02</internalNodes>
          <leafValues>
            -1.3470797240734100e-01 2.1060679852962494e-01</leafValues></_>
        <_>
          <internalNodes>
            0 -1 484 -2.2436985746026039e-02</internalNodes>
          <leafValues>
            2.7896267175674438e-01 -1.0485110431909561e-01</leafValues></_>
        <_>
          <internalNodes>
            0 -1 279 -5.8878725394606590e-04</internalNodes>
          <leafValues>
            1.9701115787029266e-01 -1.3952553272247314e-01</leafValues></_>
        <_>
          <internalNodes>
            0 -1 208 3.0230029951781034e-03</internalNodes>
          <leafValues>
            5.3845945745706558e-02 -4.9635219573974609e-01</leafValues></_>
        <_>
          <internalNodes>
            0 -1 344 -2.4443231523036957e-02</internalNodes>
          <leafValues>
            3.6380353569984436e-01 -7.4170336127281189e-02</leafValues></_>
        <_>
          <internalNodes>
            0 -1 275 -1.8546078354120255e-02</internalNodes>
          <leafValues>
            2.5212246179580688e-01 -1.1656177788972855e-01</leafValues></_>
        <_>
          <internalNodes>
            0 -1 185 6.8319045007228851e-02</internalNodes>
          <leafValues>
            -7.3031358420848846e-02 4.4710189104080200e-01</leafValues></_>
        <_>
          <internalNodes>
            0 -1 412 2.5608267635107040e-02</internalNodes>
          <leafValues>
            5.1283579319715500e-02 -6.6824680566787720e-01</leafValues></_>
        <_>
          <internalNodes>
            0 -1 664 -2.3999072145670652e-03</internalNodes>
          <leafValues>
            -6.2928032875061035e-01 3.5498768091201782e-02</leafValues></_>
        <_>
          <internalNodes>
            0 -1 3 5.9319483116269112e-03</internalNodes>
          <leafValues>
            -8.4165394306182861e-02 3.3928874135017395e-01</leafValues></_>
        <_>
          <internalNodes>
            0 -1 639 -6.0024536651326343e-05</internalNodes>
          <leafValues>
            1.4729245007038116e-01 -1.6937610507011414e-01</leafValues></_>
        <_>
          <internalNodes>
            0 -1 558 3.7761139683425426e-03</internalNodes>
          <leafValues>
            4.6726498752832413e-02 -5.6591719388961792e-01</leafValues></_>
        <_>
          <internalNodes>
            0 -1 687 -1.1722365161404014e-03</internalNodes>
          <leafValues>
            -3.8153743743896484e-01 6.0802921652793884e-02</leafValues></_>
        <_>
          <internalNodes>
            0 -1 15 -2.8218293562531471e-02</internalNodes>
          <leafValues>
            3.1282225251197815e-01 -7.5283206999301910e-02</leafValues></_>
        <_>
          <internalNodes>
            0 -1 213 8.8419727981090546e-03</internalNodes>
          <leafValues>
            4.6826075762510300e-02 -5.2025109529495239e-01</leafValues></_>
        <_>
          <internalNodes>
            0 -1 532 1.2483902974054217e-03</internalNodes>
          <leafValues>
            -1.1759867519140244e-01 2.0673789083957672e-01</leafValues></_>
        <_>
          <internalNodes>
            0 -1 75 2.3585662711411715e-03</internalNodes>
          <leafValues>
            -1.3267259299755096e-01 1.8107955157756805e-01</leafValues></_>
        <_>
          <internalNodes>
            0 -1 443 1.2941600754857063e-02</internalNodes>
          <leafValues>
            -1.0680771619081497e-01 2.2957116365432739e-01</leafValues></_>
        <_>
          <internalNodes>
            0 -1 237 -4.6213818714022636e-03</internalNodes>
          <leafValues>
            -6.1895459890365601e-01 3.9217099547386169e-02</leafValues></_>
        <_>
          <internalNodes>
            0 -1 452 -3.6264550872147083e-03</internalNodes>
          <leafValues>
            2.0556107163429260e-01 -1.1951687186956406e-01</leafValues></_>
        <_>
          <internalNodes>
            0 -1 104 3.7482948973774910e-03</internalNodes>
          <leafValues>
            4.3726723641157150e-02 -5.0879663228988647e-01</leafValues></_>
        <_>
          <internalNodes>
            0 -1 423 -2.7017237152904272e-03</internalNodes>
          <leafValues>
            -4.1759732365608215e-01 5.2742443978786469e-02</leafValues></_>
        <_>
          <internalNodes>
            0 -1 290 1.1127404868602753e-02</internalNodes>
          <leafValues>
            -9.3891829252243042e-02 2.4961662292480469e-01</leafValues></_>
        <_>
          <internalNodes>
            0 -1 310 -7.4814804829657078e-03</internalNodes>
          <leafValues>
            2.1913628280162811e-01 -1.0785749554634094e-01</leafValues></_>
        <_>
          <internalNodes>
            0 -1 236 5.8093783445656300e-04</internalNodes>
          <leafValues>
            9.0363278985023499e-02 -2.2588272392749786e-01</leafValues></_>
        <_>
          <internalNodes>
            0 -1 461 3.6282099783420563e-02</internalNodes>
          <leafValues>
            -5.1913369446992874e-02 4.1987937688827515e-01</leafValues></_>
        <_>
          <internalNodes>
            0 -1 461 -1.3461299240589142e-02</internalNodes>
          <leafValues>
            2.7403956651687622e-01 -9.4759710133075714e-02</leafValues></_>
        <_>
          <internalNodes>
            0 -1 629 -1.3333276147022843e-03</internalNodes>
          <leafValues>
            -4.5936793088912964e-01 4.6661362051963806e-02</leafValues></_>
        <_>
          <internalNodes>
            0 -1 606 -1.6037210589274764e-03</internalNodes>
          <leafValues>
            1.8656200170516968e-01 -1.1750049144029617e-01</leafValues></_>
        <_>
          <internalNodes>
            0 -1 604 1.1282581835985184e-03</internalNodes>
          <leafValues>
            7.8054666519165039e-02 -2.6532733440399170e-01</leafValues></_>
        <_>
          <internalNodes>
            0 -1 289 -3.2416537404060364e-02</internalNodes>
          <leafValues>
            2.7422896027565002e-01 -7.2298943996429443e-02</leafValues></_>
        <_>
          <internalNodes>
            0 -1 327 -5.8192368596792221e-03</internalNodes>
          <leafValues>
            2.4719449877738953e-01 -9.0100809931755066e-02</leafValues></_>
        <_>
          <internalNodes>
            0 -1 191 -1.9114948809146881e-02</internalNodes>
          <leafValues>
            4.6880438923835754e-01 -4.7106873244047165e-02</leafValues></_>
        <_>
          <internalNodes>
            0 -1 291 2.0966589450836182e-02</internalNodes>
          <leafValues>
            -7.1664020419120789e-02 2.8756985068321228e-01</leafValues></_>
        <_>
          <internalNodes>
            0 -1 137 3.8393642753362656e-03</internalNodes>
          <leafValues>
            4.6219285577535629e-02 -4.6553087234497070e-01</leafValues></_>
        <_>
          <internalNodes>
            0 -1 689 -2.4191197007894516e-03</internalNodes>
          <leafValues>
            -5.9208458662033081e-01 3.5040978342294693e-02</leafValues></_>
        <_>
          <internalNodes>
            0 -1 488 -1.8786867149174213e-03</internalNodes>
          <leafValues>
            1.7190551757812500e-01 -1.2859883904457092e-01</leafValues></_>
        <_>
          <internalNodes>
            0 -1 277 -2.0115623250603676e-02</internalNodes>
          <leafValues>
            2.3607835173606873e-01 -9.7825683653354645e-02</leafValues></_>
        <_>
          <internalNodes>
            0 -1 322 1.7706923186779022e-02</internalNodes>
          <leafValues>
            -4.3439541012048721e-02 5.5589342117309570e-01</leafValues></_>
        <_>
          <internalNodes>
            0 -1 524 -1.6382017638534307e-03</internalNodes>
          <leafValues>
            2.1914833784103394e-01 -9.3700349330902100e-02</leafValues></_>
        <_>
          <internalNodes>
            0 -1 527 -5.2203671075403690e-03</internalNodes>
          <leafValues>
            -8.7321943044662476e-01 3.2413765788078308e-02</leafValues></_>
        <_>
          <internalNodes>
            0 -1 238 6.5026758238673210e-03</internalNodes>
          <leafValues>
            -9.0205714106559753e-02 2.4113960564136505e-01</leafValues></_></weakClassifiers></_>
    <!-- stage 5 -->
    <_>
      <maxWeakCount>60</maxWeakCount>
      <stageThreshold>-1.2686859369277954e+00</stageThreshold>
      <weakClassifiers>
        <_>
          <internalNodes>
            0 -1 102 1.9767161458730698e-02</internalNodes>
          <leafValues>
            -1.4570857584476471e-01 7.2193026542663574e-01</leafValues></_>
        <_>
          <internalNodes>
            0 -1 30 9.6224963665008545e-02</internalNodes>
          <leafValues>
            -1.6254116594791412e-01 6.7864423990249634e-01</leafValues></_>
        <_>
          <internalNodes>
            0 -1 202 -1.7035558819770813e-02</internalNodes>
          <leafValues>
            4.6395379304885864e-01 -1.2775038182735443e-01</leafValues></_>
        <_>
          <internalNodes>
            0 -1 537 -6.7377513914834708e-05</internalNodes>
          <leafValues>
            2.1969059109687805e-01 -2.4972178041934967e-01</leafValues></_>
        <_>
          <internalNodes>
            0 -1 503 -3.0327148851938546e-04</internalNodes>
          <leafValues>
            1.7591659724712372e-01 -2.5143104791641235e-01</leafValues></_>
        <_>
          <internalNodes>
            0 -1 148 1.9031460396945477e-03</internalNodes>
          <leafValues>
            -1.6654786467552185e-01 2.4761790037155151e-01</leafValues></_>
        <_>
          <internalNodes>
            0 -1 0 -1.0140789672732353e-03</internalNodes>
          <leafValues>
            2.0426358282566071e-01 -1.7564339935779572e-01</leafValues></_>
        <_>
          <internalNodes>
            0 -1 640 -4.9090752145275474e-04</internalNodes>
          <leafValues>
            -3.7974792718887329e-01 9.4826057553291321e-02</leafValues></_>
        <_>
          <internalNodes>
            0 -1 430 4.5309661072678864e-04</internalNodes>
          <leafValues>
            -1.3885994255542755e-01 2.2749581933021545e-01</leafValues></_>
        <_>
          <internalNodes>
            0 -1 112 -3.0880877748131752e-03</internalNodes>
          <leafValues>
            -3.8194164633750916e-01 8.4928110241889954e-02</leafValues></_>
        <_>
          <internalNodes>
            0 -1 630 4.7664148733019829e-03</internalNodes>
          <leafValues>
            4.9382381141185760e-02 -5.5802261829376221e-01</leafValues></_>
        <_>
          <internalNodes>
            0 -1 669 -3.5355606814846396e-04</internalNodes>
          <leafValues>
            1.7344693839550018e-01 -1.6328512132167816e-01</leafValues></_>
        <_>
          <internalNodes>
            0 -1 435 6.8187052384018898e-03</internalNodes>
          <leafValues>
            -1.1004321277141571e-01 3.5341811180114746e-01</leafValues></_>
        <_>
          <internalNodes>
            0 -1 372 8.1336759030818939e-03</internalNodes>
          <leafValues>
            -1.0082490742206573e-01 2.7962991595268250e-01</leafValues></_>
        <_>
          <internalNodes>
            0 -1 267 2.0727830007672310e-02</internalNodes>
          <leafValues>
            -9.6293829381465912e-02 3.5354718565940857e-01</leafValues></_>
        <_>
          <internalNodes>
            0 -1 227 -1.3200063258409500e-03</internalNodes>
          <leafValues>
            2.2622443735599518e-01 -1.3555167615413666e-01</leafValues></_>
        <_>
          <internalNodes>
            0 -1 538 -2.1111555397510529e-03</internalNodes>
          <leafValues>
            -3.9433223009109497e-01 6.4681909978389740e-02</leafValues></_>
        <_>
          <internalNodes>
            0 -1 675 1.0994754265993834e-03</internalNodes>
          <leafValues>
            -1.4288875460624695e-01 2.2312188148498535e-01</leafValues></_>
        <_>
          <internalNodes>
            0 -1 211 -1.8423629808239639e-04</internalNodes>
          <leafValues>
            1.5535913407802582e-01 -1.7938953638076782e-01</leafValues></_>
        <_>
          <internalNodes>
            0 -1 656 -5.0079016946256161e-03</internalNodes>
          <leafValues>
            -4.1825160384178162e-01 6.6609643399715424e-02</leafValues></_>
        <_>
          <internalNodes>
            0 -1 51 -1.4824862591922283e-03</internalNodes>
          <leafValues>
            2.0092682540416718e-01 -1.2445978075265884e-01</leafValues></_>
        <_>
          <internalNodes>
            0 -1 132 -2.0043480396270752e-01</internalNodes>
          <leafValues>
            3.7101948261260986e-01 -6.2249060720205307e-02</leafValues></_>
        <_>
          <internalNodes>
            0 -1 417 2.5175628252327442e-03</internalNodes>
          <leafValues>
            -1.1034055054187775e-01 2.2141869366168976e-01</leafValues></_>
        <_>
          <internalNodes>
            0 -1 359 1.3842435553669930e-02</internalNodes>
          <leafValues>
            -9.7629494965076447e-02 2.6696038246154785e-01</leafValues></_>
        <_>
          <internalNodes>
            0 -1 256 -6.2705948948860168e-04</internalNodes>
          <leafValues>
            1.6033948957920074e-01 -1.4069321751594543e-01</leafValues></_>
        <_>
          <internalNodes>
            0 -1 149 1.4989948272705078e-01</internalNodes>
          <leafValues>
            -4.2863585054874420e-02 5.4427468776702881e-01</leafValues></_>
        <_>
          <internalNodes>
            0 -1 684 -5.4780085338279605e-04</internalNodes>
          <leafValues>
            -3.0280116200447083e-01 7.8563809394836426e-02</leafValues></_>
        <_>
          <internalNodes>
            0 -1 599 -4.1381088085472584e-03</internalNodes>
          <leafValues>
            2.2559420764446259e-01 -1.0574003309011459e-01</leafValues></_>
        <_>
          <internalNodes>
            0 -1 580 6.6401832737028599e-04</internalNodes>
          <leafValues>
            -1.3972190022468567e-01 1.8467105925083160e-01</leafValues></_>
        <_>
          <internalNodes>
            0 -1 512 -8.1424496602267027e-04</internalNodes>
          <leafValues>
            2.1563677489757538e-01 -1.1527810245752335e-01</leafValues></_>
        <_>
          <internalNodes>
            0 -1 547 1.0622229427099228e-02</internalNodes>
          <leafValues>
            4.1188128292560577e-02 -6.4244967699050903e-01</leafValues></_>
        <_>
          <internalNodes>
            0 -1 546 7.1914470754563808e-04</internalNodes>
          <leafValues>
            -1.3092793524265289e-01 1.8519017100334167e-01</leafValues></_>
        <_>
          <internalNodes>
            0 -1 641 2.5226655416190624e-03</internalNodes>
          <leafValues>
            -8.9482173323631287e-02 2.8788453340530396e-01</leafValues></_>
        <_>
          <internalNodes>
            0 -1 217 3.8625329034402966e-04</internalNodes>
          <leafValues>
            8.8648557662963867e-02 -2.7083560824394226e-01</leafValues></_>
        <_>
          <internalNodes>
            0 -1 638 1.3796824030578136e-02</internalNodes>
          <leafValues>
            5.7041864842176437e-02 -3.6090633273124695e-01</leafValues></_>
        <_>
          <internalNodes>
            0 -1 603 -2.3958126257639378e-04</internalNodes>
          <leafValues>
            1.4266780018806458e-01 -1.9194208085536957e-01</leafValues></_>
        <_>
          <internalNodes>
            0 -1 464 8.8437143713235855e-03</internalNodes>
          <leafValues>
            4.4059451669454575e-02 -4.7085028886795044e-01</leafValues></_>
        <_>
          <internalNodes>
            0 -1 269 1.6653785482048988e-02</internalNodes>
          <leafValues>
            -8.5825026035308838e-02 2.5439855456352234e-01</leafValues></_>
        <_>
          <internalNodes>
            0 -1 457 6.3879025401547551e-04</internalNodes>
          <leafValues>
            -1.0225883126258850e-01 1.8778814375400543e-01</leafValues></_>
        <_>
          <internalNodes>
            0 -1 301 1.3153417035937309e-02</internalNodes>
          <leafValues>
            6.2708638608455658e-02 -3.2103681564331055e-01</leafValues></_>
        <_>
          <internalNodes>
            0 -1 666 1.6228593885898590e-03</internalNodes>
          <leafValues>
            4.4294435530900955e-02 -4.3088006973266602e-01</leafValues></_>
        <_>
          <internalNodes>
            0 -1 235 -5.5654387688264251e-04</internalNodes>
          <leafValues>
            1.4608675241470337e-01 -1.4060696959495544e-01</leafValues></_>
        <_>
          <internalNodes>
            0 -1 72 -6.9881370291113853e-03</internalNodes>
          <leafValues>
            -4.3833112716674805e-01 4.5948702841997147e-02</leafValues></_>
        <_>
          <internalNodes>
            0 -1 309 -1.7004283145070076e-03</internalNodes>
          <leafValues>
            1.9591146707534790e-01 -1.0368397086858749e-01</leafValues></_>
        <_>
          <internalNodes>
            0 -1 600 5.4458258673548698e-03</internalNodes>
          <leafValues>
            -8.9001968502998352e-02 2.1824868023395538e-01</leafValues></_>
        <_>
          <internalNodes>
            0 -1 363 3.0884335283190012e-03</internalNodes>
          <leafValues>
            2.8813406825065613e-02 -6.7137622833251953e-01</leafValues></_>
        <_>
          <internalNodes>
            0 -1 577 -4.2016627267003059e-03</internalNodes>
          <leafValues>
            -6.8819528818130493e-01 2.2979417815804482e-02</leafValues></_>
        <_>
          <internalNodes>
            0 -1 573 -1.2032606638967991e-02</internalNodes>
          <leafValues>
            3.2920712232589722e-01 -8.2273617386817932e-02</leafValues></_>
        <_>
          <internalNodes>
            0 -1 92 8.9718624949455261e-03</internalNodes>
          <leafValues>
            -5.5012520402669907e-02 3.4169363975524902e-01</leafValues></_>
        <_>
          <internalNodes>
            0 -1 57 -2.0654466934502125e-03</internalNodes>
          <leafValues>
            1.7000493407249451e-01 -1.1850230395793915e-01</leafValues></_>
        <_>
          <internalNodes>
            0 -1 520 1.6956408508121967e-03</internalNodes>
          <leafValues>
            -9.8004013299942017e-02 1.9698414206504822e-01</leafValues></_>
        <_>
          <internalNodes>
            0 -1 566 -8.7152374908328056e-04</internalNodes>
          <leafValues>
            -3.4469106793403625e-01 6.0944937169551849e-02</leafValues></_>
        <_>
          <internalNodes>
            0 -1 130 -8.8088226038962603e-04</internalNodes>
          <leafValues>
            -2.8596875071525574e-01 6.3671141862869263e-02</leafValues></_>
        <_>
          <internalNodes>
            0 -1 250 5.6988283991813660e-02</internalNodes>
          <leafValues>
            -3.7771146744489670e-02 4.9108305573463440e-01</leafValues></_>
        <_>
          <internalNodes>
            0 -1 214 -3.2589942216873169e-02</internalNodes>
          <leafValues>
            1.6949474811553955e-01 -1.0653462260961533e-01</leafValues></_>
        <_>
          <internalNodes>
            0 -1 491 2.0350073464214802e-03</internalNodes>
          <leafValues>
            -1.0380528867244720e-01 1.8655563890933990e-01</leafValues></_>
        <_>
          <internalNodes>
            0 -1 429 2.1767064463347197e-03</internalNodes>
          <leafValues>
            -9.3374945223331451e-02 2.0169661939144135e-01</leafValues></_>
        <_>
          <internalNodes>
            0 -1 318 -1.4539413154125214e-02</internalNodes>
          <leafValues>
            2.4065530300140381e-01 -8.1184796988964081e-02</leafValues></_>
        <_>
          <internalNodes>
            0 -1 396 -1.3776906765997410e-02</internalNodes>
          <leafValues>
            -4.6621870994567871e-01 4.3858941644430161e-02</leafValues></_>
        <_>
          <internalNodes>
            0 -1 45 -1.8339395523071289e-02</internalNodes>
          <leafValues>
            2.5246611237525940e-01 -8.3490818738937378e-02</leafValues></_></weakClassifiers></_>
    <!-- stage 6 -->
    <_>
      <maxWeakCount>73</maxWeakCount>
      <stageThreshold>-1.1648188829421997e+00</stageThreshold>
      <weakClassifiers>
        <_>
          <internalNodes>
            0 -1 23 1.0330920666456223e-01</internalNodes>
          <leafValues>
            -9.4725795090198517e-02 7.6076018810272217e-01</leafValues></_>
        <_>
          <internalNodes>
            0 -1 60 -1.8966980278491974e-02</internalNodes>
          <leafValues>
            5.5233317613601685e-01 -2.3561713099479675e-01</leafValues></_>
        <_>
          <internalNodes>
            0 -1 198 2.2757727652788162e-02</internalNodes>
          <leafValues>
            -1.3551600277423859e-01 4.2924362421035767e-01</leafValues></_>
        <_>
          <internalNodes>
            0 -1 95 3.2786577939987183e-02</internalNodes>
          <leafValues>
            -9.8926953971385956e-02 6.9637340307235718e-01</leafValues></_>
        <_>
          <internalNodes>
            0 -1 649 -4.9224740359932184e-04</internalNodes>
          <leafValues>
            -3.9208635687828064e-01 1.1343509703874588e-01</leafValues></_>
        <_>
          <internalNodes>
            0 -1 649 4.6433071838691831e-04</internalNodes>
          <leafValues>
            1.1147288978099823e-01 -4.2253509163856506e-01</leafValues></_>
        <_>
          <internalNodes>
            0 -1 90 6.4112874679267406e-03</internalNodes>
          <leafValues>
            -1.1742442846298218e-01 4.3018448352813721e-01</leafValues></_>
        <_>
          <internalNodes>
            0 -1 407 -7.0057734847068787e-03</internalNodes>
          <leafValues>
            3.2369127869606018e-01 -1.2313233315944672e-01</leafValues></_>
        <_>
          <internalNodes>
            0 -1 95 7.1862712502479553e-03</internalNodes>
          <leafValues>
            -1.4473672211170197e-01 2.9475179314613342e-01</leafValues></_>
        <_>
          <internalNodes>
            0 -1 248 -1.4211195707321167e-01</internalNodes>
          <leafValues>
            2.5758492946624756e-01 -1.1850494891405106e-01</leafValues></_>
        <_>
          <internalNodes>
            0 -1 540 -6.8706489400938153e-05</internalNodes>
          <leafValues>
            1.4927563071250916e-01 -1.8566972017288208e-01</leafValues></_>
        <_>
          <internalNodes>
            0 -1 642 -5.1501542329788208e-03</internalNodes>
          <leafValues>
            -4.1381260752677917e-01 7.1636788547039032e-02</leafValues></_>
        <_>
          <internalNodes>
            0 -1 502 -1.4304819051176310e-03</internalNodes>
          <leafValues>
            1.9922631978988647e-01 -1.3024331629276276e-01</leafValues></_>
        <_>
          <internalNodes>
            0 -1 224 3.4578403574414551e-04</internalNodes>
          <leafValues>
            1.1138544976711273e-01 -2.5539848208427429e-01</leafValues></_>
        <_>
          <internalNodes>
            0 -1 341 2.1515373140573502e-02</internalNodes>
          <leafValues>
            -8.8008843362331390e-02 3.0226081609725952e-01</leafValues></_>
        <_>
          <internalNodes>
            0 -1 189 1.1547160148620605e-01</internalNodes>
          <leafValues>
            -6.8837627768516541e-02 3.6546558141708374e-01</leafValues></_>
        <_>
          <internalNodes>
            0 -1 669 -6.2522804364562035e-04</internalNodes>
          <leafValues>
            1.9158324599266052e-01 -1.2991933524608612e-01</leafValues></_>
        <_>
          <internalNodes>
            0 -1 679 -6.0500372201204300e-03</internalNodes>
          <leafValues>
            -6.0568624734878540e-01 4.2280577123165131e-02</leafValues></_>
        <_>
          <internalNodes>
            0 -1 671 3.0547645874321461e-03</internalNodes>
          <leafValues>
            -9.7458682954311371e-02 2.4776263535022736e-01</leafValues></_>
        <_>
          <internalNodes>
            0 -1 673 -4.7299102880060673e-04</internalNodes>
          <leafValues>
            1.9918413460254669e-01 -1.1872718483209610e-01</leafValues></_>
        <_>
          <internalNodes>
            0 -1 494 8.7893428280949593e-04</internalNodes>
          <leafValues>
            1.0187391936779022e-01 -2.2429573535919189e-01</leafValues></_>
        <_>
          <internalNodes>
            0 -1 87 9.2693918850272894e-04</internalNodes>
          <leafValues>
            -1.2107740342617035e-01 2.1070075035095215e-01</leafValues></_>
        <_>
          <internalNodes>
            0 -1 124 -6.0279492754489183e-04</internalNodes>
          <leafValues>
            -2.6836934685707092e-01 8.2454815506935120e-02</leafValues></_>
        <_>
          <internalNodes>
            0 -1 579 3.7880480522289872e-04</internalNodes>
          <leafValues>
            -1.4081853628158569e-01 1.4518983662128448e-01</leafValues></_>
        <_>
          <internalNodes>
            0 -1 572 -7.8879809007048607e-03</internalNodes>
          <leafValues>
            3.3441111445426941e-01 -7.5607314705848694e-02</leafValues></_>
        <_>
          <internalNodes>
            0 -1 584 -4.4165831059217453e-04</internalNodes>
          <leafValues>
            -2.6034301519393921e-01 9.0641483664512634e-02</leafValues></_>
        <_>
          <internalNodes>
            0 -1 369 -5.6367274373769760e-03</internalNodes>
          <leafValues>
            2.2340881824493408e-01 -1.0297272354364395e-01</leafValues></_>
        <_>
          <internalNodes>
            0 -1 336 8.5242986679077148e-03</internalNodes>
          <leafValues>
            -9.0512096881866455e-02 2.2904984652996063e-01</leafValues></_>
        <_>
          <internalNodes>
            0 -1 586 4.2684259824454784e-04</internalNodes>
          <leafValues>
            9.7811050713062286e-02 -2.0643933117389679e-01</leafValues></_>
        <_>
          <internalNodes>
            0 -1 255 -8.1214000238105655e-04</internalNodes>
          <leafValues>
            1.3825576007366180e-01 -1.4687168598175049e-01</leafValues></_>
        <_>
          <internalNodes>
            0 -1 386 -2.8345067054033279e-02</internalNodes>
          <leafValues>
            -4.1289973258972168e-01 4.7336209565401077e-02</leafValues></_>
        <_>
          <internalNodes>
            0 -1 176 1.7992744687944651e-03</internalNodes>
          <leafValues>
            8.2625277340412140e-02 -2.5097134709358215e-01</leafValues></_>
        <_>
          <internalNodes>
            0 -1 18 -3.9067310281097889e-03</internalNodes>
          <leafValues>
            2.2737595438957214e-01 -9.0093977749347687e-02</leafValues></_>
        <_>
          <internalNodes>
            0 -1 36 4.1116932407021523e-03</internalNodes>
          <leafValues>
            -9.0323813259601593e-02 2.7527046203613281e-01</leafValues></_>
        <_>
          <internalNodes>
            0 -1 165 1.5085642226040363e-03</internalNodes>
          <leafValues>
            8.4466353058815002e-02 -2.4247433245182037e-01</leafValues></_>
        <_>
          <internalNodes>
            0 -1 608 5.3909271955490112e-03</internalNodes>
          <leafValues>
            7.0885561406612396e-02 -2.9480129480361938e-01</leafValues></_>
        <_>
          <internalNodes>
            0 -1 64 5.4258145391941071e-03</internalNodes>
          <leafValues>
            2.7641894295811653e-02 -7.0841115713119507e-01</leafValues></_>
        <_>
          <internalNodes>
            0 -1 229 4.5563075691461563e-03</internalNodes>
          <leafValues>
            -7.9512484371662140e-02 2.5303104519844055e-01</leafValues></_>
        <_>
          <internalNodes>
            0 -1 662 -2.9136654920876026e-03</internalNodes>
          <leafValues>
            -2.8685462474822998e-01 6.8736605346202850e-02</leafValues></_>
        <_>
          <internalNodes>
            0 -1 467 -2.6439144858159125e-04</internalNodes>
          <leafValues>
            1.4508506655693054e-01 -1.2170605361461639e-01</leafValues></_>
        <_>
          <internalNodes>
            0 -1 183 5.5540789617225528e-04</internalNodes>
          <leafValues>
            7.7742889523506165e-02 -2.3330768942832947e-01</leafValues></_>
        <_>
          <internalNodes>
            0 -1 276 -2.1821416914463043e-02</internalNodes>
          <leafValues>
            2.3237845301628113e-01 -7.9169444739818573e-02</leafValues></_>
        <_>
          <internalNodes>
            0 -1 427 -5.3650625050067902e-03</internalNodes>
          <leafValues>
            2.1154034137725830e-01 -8.6047224700450897e-02</leafValues></_>
        <_>
          <internalNodes>
            0 -1 405 3.8196765817701817e-03</internalNodes>
          <leafValues>
            -1.1952124536037445e-01 1.6903290152549744e-01</leafValues></_>
        <_>
          <internalNodes>
            0 -1 607 2.8977631591260433e-03</internalNodes>
          <leafValues>
            -8.6837768554687500e-02 1.9218488037586212e-01</leafValues></_>
        <_>
          <internalNodes>
            0 -1 152 -3.3769449219107628e-03</internalNodes>
          <leafValues>
            -3.8387808203697205e-01 4.4578526169061661e-02</leafValues></_>
        <_>
          <internalNodes>
            0 -1 11 -7.6543260365724564e-04</internalNodes>
          <leafValues>
            1.9994795322418213e-01 -9.2609442770481110e-02</leafValues></_>
        <_>
          <internalNodes>
            0 -1 141 1.5580657124519348e-01</internalNodes>
          <leafValues>
            -3.0054142698645592e-02 5.2333253622055054e-01</leafValues></_>
        <_>
          <internalNodes>
            0 -1 446 2.8646470978856087e-02</internalNodes>
          <leafValues>
            -8.5121408104896545e-02 2.0651414990425110e-01</leafValues></_>
        <_>
          <internalNodes>
            0 -1 440 2.3497198708355427e-03</internalNodes>
          <leafValues>
            -8.9135102927684784e-02 1.9635558128356934e-01</leafValues></_>
        <_>
          <internalNodes>
            0 -1 487 5.3587323054671288e-03</internalNodes>
          <leafValues>
            4.1461311280727386e-02 -4.1075921058654785e-01</leafValues></_>
        <_>
          <internalNodes>
            0 -1 623 1.1562935542315245e-03</internalNodes>
          <leafValues>
            -9.2523440718650818e-02 1.8576072156429291e-01</leafValues></_>
        <_>
          <internalNodes>
            0 -1 388 -3.1658913940191269e-03</internalNodes>
          <leafValues>
            2.1354463696479797e-01 -9.9983282387256622e-02</leafValues></_>
        <_>
          <internalNodes>
            0 -1 528 -6.9423665991052985e-04</internalNodes>
          <leafValues>
            -2.6554030179977417e-01 6.9792389869689941e-02</leafValues></_>
        <_>
          <internalNodes>
            0 -1 543 5.3259951528161764e-04</internalNodes>
          <leafValues>
            -1.0867751389741898e-01 1.6073042154312134e-01</leafValues></_>
        <_>
          <internalNodes>
            0 -1 254 6.2018516473472118e-04</internalNodes>
          <leafValues>
            7.3763482272624969e-02 -2.2975473105907440e-01</leafValues></_>
        <_>
          <internalNodes>
            0 -1 473 8.8488089386373758e-04</internalNodes>
          <leafValues>
            -6.9273494184017181e-02 2.6454219222068787e-01</leafValues></_>
        <_>
          <internalNodes>
            0 -1 324 4.0028397925198078e-03</internalNodes>
          <leafValues>
            -4.7911804169416428e-02 3.4626358747482300e-01</leafValues></_>
        <_>
          <internalNodes>
            0 -1 74 7.2903628461062908e-04</internalNodes>
          <leafValues>
            -9.3323260545730591e-02 1.8377430737018585e-01</leafValues></_>
        <_>
          <internalNodes>
            0 -1 648 4.0835898835211992e-04</internalNodes>
          <leafValues>
            8.8505424559116364e-02 -2.1325139701366425e-01</leafValues></_>
        <_>
          <internalNodes>
            0 -1 683 -3.5445071989670396e-04</internalNodes>
          <leafValues>
            -2.3261797428131104e-01 8.6262911558151245e-02</leafValues></_>
        <_>
          <internalNodes>
            0 -1 243 4.2694653384387493e-03</internalNodes>
          <leafValues>
            1.0007525235414505e-01 -1.6914944350719452e-01</leafValues></_>
        <_>
          <internalNodes>
            0 -1 43 -1.4697897713631392e-03</internalNodes>
          <leafValues>
            2.0349131524562836e-01 -8.9379988610744476e-02</leafValues></_>
        <_>
          <internalNodes>
            0 -1 257 -1.2810135260224342e-02</internalNodes>
          <leafValues>
            -3.9144492149353027e-01 4.6821277588605881e-02</leafValues></_>
        <_>
          <internalNodes>
            0 -1 436 1.7733481526374817e-01</internalNodes>
          <leafValues>
            2.0439239218831062e-02 -7.5430041551589966e-01</leafValues></_>
        <_>
          <internalNodes>
            0 -1 522 8.8248844258487225e-04</internalNodes>
          <leafValues>
            -8.7289944291114807e-02 2.0395797491073608e-01</leafValues></_>
        <_>
          <internalNodes>
            0 -1 489 5.9392936527729034e-03</internalNodes>
          <leafValues>
            2.3689761757850647e-02 -7.2237288951873779e-01</leafValues></_>
        <_>
          <internalNodes>
            0 -1 228 -2.8788746567443013e-04</internalNodes>
          <leafValues>
            1.2157273292541504e-01 -1.2590593099594116e-01</leafValues></_>
        <_>
          <internalNodes>
            0 -1 550 1.5086005441844463e-04</internalNodes>
          <leafValues>
            9.5900200307369232e-02 -1.7013114690780640e-01</leafValues></_>
        <_>
          <internalNodes>
            0 -1 593 1.6519019380211830e-02</internalNodes>
          <leafValues>
            6.3558146357536316e-02 -2.6539170742034912e-01</leafValues></_>
        <_>
          <internalNodes>
            0 -1 431 -2.7551923412829638e-03</internalNodes>
          <leafValues>
            2.3489789664745331e-01 -7.3158748447895050e-02</leafValues></_>
        <_>
          <internalNodes>
            0 -1 83 4.1644712910056114e-03</internalNodes>
          <leafValues>
            2.3029793053865433e-02 -7.5039225816726685e-01</leafValues></_>
        <_>
          <internalNodes>
            0 -1 349 7.4030254036188126e-03</internalNodes>
          <leafValues>
            -5.2614439278841019e-02 3.2867956161499023e-01</leafValues></_></weakClassifiers></_>
    <!-- stage 7 -->
    <_>
      <maxWeakCount>78</maxWeakCount>
      <stageThreshold>-1.2045316696166992e+00</stageThreshold>
      <weakClassifiers>
        <_>
          <internalNodes>
            0 -1 6 1.0188000276684761e-02</internalNodes>
          <leafValues>
            -1.3718070089817047e-01 5.9077811241149902e-01</leafValues></_>
        <_>
          <internalNodes>
            0 -1 62 2.9378280043601990e-02</internalNodes>
          <leafValues>
            -1.4669427275657654e-01 5.2487123012542725e-01</leafValues></_>
        <_>
          <internalNodes>
            0 -1 85 1.9377372227609158e-03</internalNodes>
          <leafValues>
            -1.7868340015411377e-01 2.9907023906707764e-01</leafValues></_>
        <_>
          <internalNodes>
            0 -1 654 5.3167244186624885e-04</internalNodes>
          <leafValues>
            1.0296215116977692e-01 -4.2107364535331726e-01</leafValues></_>
        <_>
          <internalNodes>
            0 -1 669 -1.3420586474239826e-03</internalNodes>
          <leafValues>
            2.8054478764533997e-01 -2.0067273080348969e-01</leafValues></_>
        <_>
          <internalNodes>
            0 -1 654 -3.5911513259634376e-04</internalNodes>
          <leafValues>
            -3.0083638429641724e-01 1.5081030130386353e-01</leafValues></_>
        <_>
          <internalNodes>
            0 -1 471 -7.8724732156842947e-04</internalNodes>
          <leafValues>
            1.8327012658119202e-01 -2.0409861207008362e-01</leafValues></_>
        <_>
          <internalNodes>
            0 -1 262 1.7948850989341736e-02</internalNodes>
          <leafValues>
            -1.0855203121900558e-01 2.9504305124282837e-01</leafValues></_>
        <_>
          <internalNodes>
            0 -1 201 1.8712274730205536e-02</internalNodes>
          <leafValues>
            -7.6550051569938660e-02 3.9064815640449524e-01</leafValues></_>
        <_>
          <internalNodes>
            0 -1 164 1.9150816369801760e-03</internalNodes>
          <leafValues>
            9.0337723493576050e-02 -3.8071358203887939e-01</leafValues></_>
        <_>
          <internalNodes>
            0 -1 259 -1.0470267385244370e-02</internalNodes>
          <leafValues>
            3.9305526018142700e-01 -8.5561193525791168e-02</leafValues></_>
        <_>
          <internalNodes>
            0 -1 632 -8.3102320786565542e-04</internalNodes>
          <leafValues>
            -4.5887291431427002e-01 6.6615223884582520e-02</leafValues></_>
        <_>
          <internalNodes>
            0 -1 582 -5.7118872064165771e-05</internalNodes>
          <leafValues>
            1.6362638771533966e-01 -2.3580563068389893e-01</leafValues></_>
        <_>
          <internalNodes>
            0 -1 408 1.5227494761347771e-02</internalNodes>
          <leafValues>
            4.1934572160243988e-02 -7.7472293376922607e-01</leafValues></_>
        <_>
          <internalNodes>
            0 -1 216 -4.0346721652895212e-04</internalNodes>
          <leafValues>
            -2.9367220401763916e-01 8.5999056696891785e-02</leafValues></_>
        <_>
          <internalNodes>
            0 -1 88 -8.7778270244598389e-04</internalNodes>
          <leafValues>
            1.7687934637069702e-01 -1.4504960179328918e-01</leafValues></_>
        <_>
          <internalNodes>
            0 -1 618 3.7009757943451405e-03</internalNodes>
          <leafValues>
            -1.1969529092311859e-01 2.2038231790065765e-01</leafValues></_>
        <_>
          <internalNodes>
            0 -1 622 -1.3823811896145344e-03</internalNodes>
          <leafValues>
            2.6512977480888367e-01 -1.1007404327392578e-01</leafValues></_>
        <_>
          <internalNodes>
            0 -1 569 4.4539180817082524e-04</internalNodes>
          <leafValues>
            8.2979984581470490e-02 -2.8872582316398621e-01</leafValues></_>
        <_>
          <internalNodes>
            0 -1 508 1.8111609388142824e-03</internalNodes>
          <leafValues>
            -9.2711411416530609e-02 2.4940951168537140e-01</leafValues></_>
        <_>
          <internalNodes>
            0 -1 568 5.0115236081182957e-04</internalNodes>
          <leafValues>
            8.9228250086307526e-02 -2.7070915699005127e-01</leafValues></_>
        <_>
          <internalNodes>
            0 -1 392 7.3621496558189392e-03</internalNodes>
          <leafValues>
            -8.7620437145233154e-02 2.8611549735069275e-01</leafValues></_>
        <_>
          <internalNodes>
            0 -1 147 7.4224732816219330e-04</internalNodes>
          <leafValues>
            -1.3740679621696472e-01 1.5882329642772675e-01</leafValues></_>
        <_>
          <internalNodes>
            0 -1 395 -9.5839537680149078e-03</internalNodes>
          <leafValues>
            2.3655402660369873e-01 -9.3694895505905151e-02</leafValues></_>
        <_>
          <internalNodes>
            0 -1 342 -2.6347171515226364e-03</internalNodes>
          <leafValues>
            2.5967162847518921e-01 -9.0727694332599640e-02</leafValues></_>
        <_>
          <internalNodes>
            0 -1 315 -1.1869872920215130e-02</internalNodes>
          <leafValues>
            2.8595805168151855e-01 -7.5425222516059875e-02</leafValues></_>
        <_>
          <internalNodes>
            0 -1 313 4.1801873594522476e-03</internalNodes>
          <leafValues>
            -1.0765244066715240e-01 2.2117291390895844e-01</leafValues></_>
        <_>
          <internalNodes>
            0 -1 231 7.0172804407775402e-04</internalNodes>
          <leafValues>
            9.6044614911079407e-02 -2.1594555675983429e-01</leafValues></_>
        <_>
          <internalNodes>
            0 -1 151 5.5852117948234081e-03</internalNodes>
          <leafValues>
            -9.8846487700939178e-02 2.2032542526721954e-01</leafValues></_>
        <_>
          <internalNodes>
            0 -1 486 -6.5659228712320328e-03</internalNodes>
          <leafValues>
            2.1987104415893555e-01 -1.0108526051044464e-01</leafValues></_>
        <_>
          <internalNodes>
            0 -1 449 6.8531851284205914e-03</internalNodes>
          <leafValues>
            4.9557626247406006e-02 -4.3318420648574829e-01</leafValues></_>
        <_>
          <internalNodes>
            0 -1 623 1.1762175709009171e-02</internalNodes>
          <leafValues>
            2.2787205874919891e-02 -8.3783274888992310e-01</leafValues></_>
        <_>
          <internalNodes>
            0 -1 49 3.2258140854537487e-03</internalNodes>
          <leafValues>
            -7.9006195068359375e-02 2.5527539849281311e-01</leafValues></_>
        <_>
          <internalNodes>
            0 -1 584 1.0537935886532068e-03</internalNodes>
          <leafValues>
            5.5868241935968399e-02 -3.7450093030929565e-01</leafValues></_>
        <_>
          <internalNodes>
            0 -1 48 -9.4555318355560303e-04</internalNodes>
          <leafValues>
            2.9423999786376953e-01 -7.6220490038394928e-02</leafValues></_>
        <_>
          <internalNodes>
            0 -1 258 4.5948527986183763e-04</internalNodes>
          <leafValues>
            1.0040158778429031e-01 -2.1824830770492554e-01</leafValues></_>
        <_>
          <internalNodes>
            0 -1 496 1.4855924528092146e-03</internalNodes>
          <leafValues>
            -1.0541276633739471e-01 2.0551560819149017e-01</leafValues></_>
        <_>
          <internalNodes>
            0 -1 28 5.4336930625140667e-03</internalNodes>
          <leafValues>
            -9.7956910729408264e-02 2.1092750132083893e-01</leafValues></_>
        <_>
          <internalNodes>
            0 -1 526 -1.0841498151421547e-03</internalNodes>
          <leafValues>
            2.1190106868743896e-01 -9.6491478383541107e-02</leafValues></_>
        <_>
          <internalNodes>
            0 -1 560 1.2588188983500004e-03</internalNodes>
          <leafValues>
            -1.2090912461280823e-01 2.1656058728694916e-01</leafValues></_>
        <_>
          <internalNodes>
            0 -1 121 -6.7011355422437191e-03</internalNodes>
          <leafValues>
            -4.1477602720260620e-01 4.8190720379352570e-02</leafValues></_>
        <_>
          <internalNodes>
            0 -1 212 -1.6590522136539221e-03</internalNodes>
          <leafValues>
            1.4281126856803894e-01 -1.4612002670764923e-01</leafValues></_>
        <_>
          <internalNodes>
            0 -1 551 1.8839322729036212e-04</internalNodes>
          <leafValues>
            9.4070307910442352e-02 -1.9183662533760071e-01</leafValues></_>
        <_>
          <internalNodes>
            0 -1 468 1.4007168356329203e-03</internalNodes>
          <leafValues>
            -1.0242273658514023e-01 1.8177942931652069e-01</leafValues></_>
        <_>
          <internalNodes>
            0 -1 294 -2.0511321723461151e-02</internalNodes>
          <leafValues>
            2.6882174611091614e-01 -6.4882695674896240e-02</leafValues></_>
        <_>
          <internalNodes>
            0 -1 118 -5.6732818484306335e-02</internalNodes>
          <leafValues>
            2.2523671388626099e-01 -8.1276699900627136e-02</leafValues></_>
        <_>
          <internalNodes>
            0 -1 637 2.1767681464552879e-03</internalNodes>
          <leafValues>
            7.6799824833869934e-02 -2.5393897294998169e-01</leafValues></_>
        <_>
          <internalNodes>
            0 -1 303 -3.6777327768504620e-03</internalNodes>
          <leafValues>
            2.5635552406311035e-01 -7.2057344019412994e-02</leafValues></_>
        <_>
          <internalNodes>
            0 -1 244 1.2957530561834574e-03</internalNodes>
          <leafValues>
            4.8456192016601562e-02 -3.8334292173385620e-01</leafValues></_>
        <_>
          <internalNodes>
            0 -1 284 4.4096107594668865e-03</internalNodes>
          <leafValues>
            -8.4851242601871490e-02 2.1100483834743500e-01</leafValues></_>
        <_>
          <internalNodes>
            0 -1 331 -4.1695060208439827e-03</internalNodes>
          <leafValues>
            -5.7768201828002930e-01 3.2536953687667847e-02</leafValues></_>
        <_>
          <internalNodes>
            0 -1 325 1.6725296154618263e-02</internalNodes>
          <leafValues>
            -1.1208725720643997e-01 1.6976770758628845e-01</leafValues></_>
        <_>
          <internalNodes>
            0 -1 399 -3.2452424056828022e-04</internalNodes>
          <leafValues>
            1.7127238214015961e-01 -1.0872421413660049e-01</leafValues></_>
        <_>
          <internalNodes>
            0 -1 620 -1.2951043434441090e-02</internalNodes>
          <leafValues>
            -2.6247307658195496e-01 6.6579937934875488e-02</leafValues></_>
        <_>
          <internalNodes>
            0 -1 223 2.1809237077832222e-03</internalNodes>
          <leafValues>
            4.0552705526351929e-02 -4.2662954330444336e-01</leafValues></_>
        <_>
          <internalNodes>
            0 -1 544 1.7452748492360115e-02</internalNodes>
          <leafValues>
            -6.5922096371650696e-02 2.5973275303840637e-01</leafValues></_>
        <_>
          <internalNodes>
            0 -1 510 -5.1761651411652565e-04</internalNodes>
          <leafValues>
            -2.0530827343463898e-01 9.5209561288356781e-02</leafValues></_>
        <_>
          <internalNodes>
            0 -1 362 -4.0404796600341797e-02</internalNodes>
          <leafValues>
            4.0487551689147949e-01 -4.2654111981391907e-02</leafValues></_>
        <_>
          <internalNodes>
            0 -1 658 5.5419490672647953e-04</internalNodes>
          <leafValues>
            6.6560693085193634e-02 -2.5599759817123413e-01</leafValues></_>
        <_>
          <internalNodes>
            0 -1 27 -7.3621994815766811e-03</internalNodes>
          <leafValues>
            1.8642720580101013e-01 -9.1811761260032654e-02</leafValues></_>
        <_>
          <internalNodes>
            0 -1 107 -2.8059587348252535e-03</internalNodes>
          <leafValues>
            -2.3551483452320099e-01 8.5899382829666138e-02</leafValues></_>
        <_>
          <internalNodes>
            0 -1 40 7.6693412847816944e-04</internalNodes>
          <leafValues>
            -7.4774652719497681e-02 2.8024989366531372e-01</leafValues></_>
        <_>
          <internalNodes>
            0 -1 34 -2.6201670989394188e-03</internalNodes>
          <leafValues>
            2.3691847920417786e-01 -7.3744602501392365e-02</leafValues></_>
        <_>
          <internalNodes>
            0 -1 661 2.6654824614524841e-04</internalNodes>
          <leafValues>
            9.2376798391342163e-02 -1.8970230221748352e-01</leafValues></_>
        <_>
          <internalNodes>
            0 -1 221 1.2033445760607719e-02</internalNodes>
          <leafValues>
            -1.0195136815309525e-01 1.6888265311717987e-01</leafValues></_>
        <_>
          <internalNodes>
            0 -1 444 -9.2195125762373209e-04</internalNodes>
          <leafValues>
            1.6893054544925690e-01 -1.1216718703508377e-01</leafValues></_>
        <_>
          <internalNodes>
            0 -1 328 6.5794829279184341e-03</internalNodes>
          <leafValues>
            -7.9974643886089325e-02 2.3127561807632446e-01</leafValues></_>
        <_>
          <internalNodes>
            0 -1 108 9.9925007671117783e-03</internalNodes>
          <leafValues>
            6.3959039747714996e-02 -2.6088130474090576e-01</leafValues></_>
        <_>
          <internalNodes>
            0 -1 419 -2.1653524599969387e-03</internalNodes>
          <leafValues>
            1.8332320451736450e-01 -9.1205477714538574e-02</leafValues></_>
        <_>
          <internalNodes>
            0 -1 424 -2.6515764184296131e-03</internalNodes>
          <leafValues>
            2.0162197947502136e-01 -9.4733759760856628e-02</leafValues></_>
        <_>
          <internalNodes>
            0 -1 300 -9.5515102148056030e-02</internalNodes>
          <leafValues>
            -2.8557699918746948e-01 6.9582529366016388e-02</leafValues></_>
        <_>
          <internalNodes>
            0 -1 96 3.5966075956821442e-03</internalNodes>
          <leafValues>
            -1.0404575616121292e-01 1.6671355068683624e-01</leafValues></_>
        <_>
          <internalNodes>
            0 -1 661 -3.7053687265142798e-04</internalNodes>
          <leafValues>
            -2.1727067232131958e-01 7.8846193850040436e-02</leafValues></_>
        <_>
          <internalNodes>
            0 -1 287 2.6724350755102932e-04</internalNodes>
          <leafValues>
            -1.1967970430850983e-01 1.4589875936508179e-01</leafValues></_>
        <_>
          <internalNodes>
            0 -1 5 -1.1756485700607300e-01</internalNodes>
          <leafValues>
            -8.5161906480789185e-01 1.8560696393251419e-02</leafValues></_>
        <_>
          <internalNodes>
            0 -1 390 -4.4220425188541412e-03</internalNodes>
          <leafValues>
            -5.6781011819839478e-01 2.4510795250535011e-02</leafValues></_>
        <_>
          <internalNodes>
            0 -1 316 1.0393042117357254e-02</internalNodes>
          <leafValues>
            -8.5507445037364960e-02 1.9357499480247498e-01</leafValues></_>
        <_>
          <internalNodes>
            0 -1 346 -3.9978646673262119e-03</internalNodes>
          <leafValues>
            2.2653457522392273e-01 -7.0295512676239014e-02</leafValues></_></weakClassifiers></_>
    <!-- stage 8 -->
    <_>
      <maxWeakCount>75</maxWeakCount>
      <stageThreshold>-1.2152569293975830e+00</stageThreshold>
      <weakClassifiers>
        <_>
          <internalNodes>
            0 -1 16 6.8083360791206360e-02</internalNodes>
          <leafValues>
            -1.4372347295284271e-01 6.4031279087066650e-01</leafValues></_>
        <_>
          <internalNodes>
            0 -1 205 3.6855190992355347e-03</internalNodes>
          <leafValues>
            -2.1020045876502991e-01 3.9006724953651428e-01</leafValues></_>
        <_>
          <internalNodes>
            0 -1 462 4.6837795525789261e-03</internalNodes>
          <leafValues>
            -1.7458947002887726e-01 3.4319236874580383e-01</leafValues></_>
        <_>
          <internalNodes>
            0 -1 590 -6.6165823955088854e-04</internalNodes>
          <leafValues>
            -5.0117862224578857e-01 4.3478474020957947e-02</leafValues></_>
        <_>
          <internalNodes>
            0 -1 383 -8.1718771252781153e-04</internalNodes>
          <leafValues>
            2.1332643926143646e-01 -1.5743367373943329e-01</leafValues></_>
        <_>
          <internalNodes>
            0 -1 158 -2.9671217780560255e-03</internalNodes>
          <leafValues>
            -4.6458905935287476e-01 7.0682436227798462e-02</leafValues></_>
        <_>
          <internalNodes>
            0 -1 645 5.6674866937100887e-04</internalNodes>
          <leafValues>
            7.2221823036670685e-02 -3.8400694727897644e-01</leafValues></_>
        <_>
          <internalNodes>
            0 -1 592 -8.8785809930413961e-04</internalNodes>
          <leafValues>
            -3.1852906942367554e-01 8.7130531668663025e-02</leafValues></_>
        <_>
          <internalNodes>
            0 -1 501 -3.9355998160317540e-04</internalNodes>
          <leafValues>
            2.1079479157924652e-01 -1.3569469749927521e-01</leafValues></_>
        <_>
          <internalNodes>
            0 -1 264 -4.2016210500150919e-04</internalNodes>
          <leafValues>
            1.6407084465026855e-01 -1.5980257093906403e-01</leafValues></_>
        <_>
          <internalNodes>
            0 -1 29 -1.7424836754798889e-02</internalNodes>
          <leafValues>
            3.8651871681213379e-01 -6.2909901142120361e-02</leafValues></_>
        <_>
          <internalNodes>
            0 -1 52 3.4160760696977377e-03</internalNodes>
          <leafValues>
            -8.5020110011100769e-02 2.7355006337165833e-01</leafValues></_>
        <_>
          <internalNodes>
            0 -1 541 1.9524815434124321e-04</internalNodes>
          <leafValues>
            -1.2965659797191620e-01 1.8353779613971710e-01</leafValues></_>
        <_>
          <internalNodes>
            0 -1 135 1.2313318438827991e-03</internalNodes>
          <leafValues>
            9.5209948718547821e-02 -2.5457063317298889e-01</leafValues></_>
        <_>
          <internalNodes>
            0 -1 366 -2.3288256488740444e-03</internalNodes>
          <leafValues>
            2.4082456529140472e-01 -1.0533884912729263e-01</leafValues></_>
        <_>
          <internalNodes>
            0 -1 370 1.2034000828862190e-02</internalNodes>
          <leafValues>
            -9.7961030900478363e-02 2.7931055426597595e-01</leafValues></_>
        <_>
          <internalNodes>
            0 -1 397 1.3787059113383293e-02</internalNodes>
          <leafValues>
            -9.3154571950435638e-02 2.8660425543785095e-01</leafValues></_>
        <_>
          <internalNodes>
            0 -1 280 -3.1729273498058319e-02</internalNodes>
          <leafValues>
            -6.2944835424423218e-01 4.1683390736579895e-02</leafValues></_>
        <_>
          <internalNodes>
            0 -1 570 -1.7936309450305998e-04</internalNodes>
          <leafValues>
            1.2775991857051849e-01 -1.8801033496856689e-01</leafValues></_>
        <_>
          <internalNodes>
            0 -1 570 -3.2784012146294117e-03</internalNodes>
          <leafValues>
            -4.5410972833633423e-01 5.5074639618396759e-02</leafValues></_>
        <_>
          <internalNodes>
            0 -1 234 -7.2576408274471760e-04</internalNodes>
          <leafValues>
            -2.8073844313621521e-01 7.7136576175689697e-02</leafValues></_>
        <_>
          <internalNodes>
            0 -1 8 -2.9307557269930840e-03</internalNodes>
          <leafValues>
            1.7364265024662018e-01 -1.2410000711679459e-01</leafValues></_>
        <_>
          <internalNodes>
            0 -1 409 -3.6793369799852371e-02</internalNodes>
          <leafValues>
            -7.4236547946929932e-01 3.1049050390720367e-02</leafValues></_>
        <_>
          <internalNodes>
            0 -1 426 1.3472752179950476e-03</internalNodes>
          <leafValues>
            -1.0151465982198715e-01 2.0425914227962494e-01</leafValues></_>
        <_>
          <internalNodes>
            0 -1 661 9.7627693321555853e-04</internalNodes>
          <leafValues>
            6.8108148872852325e-02 -3.3220520615577698e-01</leafValues></_>
        <_>
          <internalNodes>
            0 -1 451 -2.2372985258698463e-03</internalNodes>
          <leafValues>
            2.3169142007827759e-01 -8.8531985878944397e-02</leafValues></_>
        <_>
          <internalNodes>
            0 -1 594 2.5077604223042727e-03</internalNodes>
          <leafValues>
            -1.3473196327686310e-01 1.5150697529315948e-01</leafValues></_>
        <_>
          <internalNodes>
            0 -1 610 -1.3922302052378654e-02</internalNodes>
          <leafValues>
            -4.0759268403053284e-01 5.0037719309329987e-02</leafValues></_>
        <_>
          <internalNodes>
            0 -1 12 1.1296814773231745e-03</internalNodes>
          <leafValues>
            -9.1621316969394684e-02 2.4511258304119110e-01</leafValues></_>
        <_>
          <internalNodes>
            0 -1 175 -5.2666151896119118e-04</internalNodes>
          <leafValues>
            -2.4440909922122955e-01 8.2909673452377319e-02</leafValues></_>
        <_>
          <internalNodes>
            0 -1 321 -3.7842872552573681e-03</internalNodes>
          <leafValues>
            2.2625583410263062e-01 -9.5318488776683807e-02</leafValues></_>
        <_>
          <internalNodes>
            0 -1 139 1.2089221272617579e-03</internalNodes>
          <leafValues>
            -8.2638733088970184e-02 2.5020313262939453e-01</leafValues></_>
        <_>
          <internalNodes>
            0 -1 133 1.3250952959060669e-01</internalNodes>
          <leafValues>
            -3.7018779665231705e-02 5.3434288501739502e-01</leafValues></_>
        <_>
          <internalNodes>
            0 -1 194 -3.3125348389148712e-02</internalNodes>
          <leafValues>
            2.4689535796642303e-01 -8.1354059278964996e-02</leafValues></_>
        <_>
          <internalNodes>
            0 -1 425 8.0690830945968628e-03</internalNodes>
          <leafValues>
            5.3971115499734879e-02 -3.8197237253189087e-01</leafValues></_>
        <_>
          <internalNodes>
            0 -1 410 7.4823800241574645e-04</internalNodes>
          <leafValues>
            -1.0388803482055664e-01 2.0931801199913025e-01</leafValues></_>
        <_>
          <internalNodes>
            0 -1 136 -3.5380892455577850e-02</internalNodes>
          <leafValues>
            4.7041928768157959e-01 -4.0595036000013351e-02</leafValues></_>
        <_>
          <internalNodes>
            0 -1 171 1.0687678586691618e-03</internalNodes>
          <leafValues>
            1.0159005969762802e-01 -1.9808535277843475e-01</leafValues></_>
        <_>
          <internalNodes>
            0 -1 411 3.2890429720282555e-03</internalNodes>
          <leafValues>
            3.2975237816572189e-02 -5.3164047002792358e-01</leafValues></_>
        <_>
          <internalNodes>
            0 -1 676 9.2672527534887195e-04</internalNodes>
          <leafValues>
            -7.8265294432640076e-02 2.4490000307559967e-01</leafValues></_>
        <_>
          <internalNodes>
            0 -1 333 1.0216997470706701e-03</internalNodes>
          <leafValues>
            -9.5497772097587585e-02 1.9350118935108185e-01</leafValues></_>
        <_>
          <internalNodes>
            0 -1 334 -7.2968434542417526e-03</internalNodes>
          <leafValues>
            2.3564250767230988e-01 -9.5795691013336182e-02</leafValues></_>
        <_>
          <internalNodes>
            0 -1 531 1.5603080391883850e-03</internalNodes>
          <leafValues>
            4.0003314614295959e-02 -4.7032216191291809e-01</leafValues></_>
        <_>
          <internalNodes>
            0 -1 673 -3.9591186214238405e-04</internalNodes>
          <leafValues>
            1.7517761886119843e-01 -1.1433412879705429e-01</leafValues></_>
        <_>
          <internalNodes>
            0 -1 674 6.5786374034360051e-04</internalNodes>
          <leafValues>
            -1.0050182789564133e-01 2.0195519924163818e-01</leafValues></_>
        <_>
          <internalNodes>
            0 -1 155 5.6659406982362270e-04</internalNodes>
          <leafValues>
            8.5317291319370270e-02 -2.3785679042339325e-01</leafValues></_>
        <_>
          <internalNodes>
            0 -1 633 -5.2691902965307236e-04</internalNodes>
          <leafValues>
            -3.0067247152328491e-01 6.0785975307226181e-02</leafValues></_>
        <_>
          <internalNodes>
            0 -1 54 -1.0589105077087879e-03</internalNodes>
          <leafValues>
            2.4650985002517700e-01 -7.9723469913005829e-02</leafValues></_>
        <_>
          <internalNodes>
            0 -1 633 5.7817460037767887e-04</internalNodes>
          <leafValues>
            6.2299873679876328e-02 -3.3022063970565796e-01</leafValues></_>
        <_>
          <internalNodes>
            0 -1 358 -1.8761728424578905e-03</internalNodes>
          <leafValues>
            2.1371257305145264e-01 -9.1288506984710693e-02</leafValues></_>
        <_>
          <internalNodes>
            0 -1 76 -5.4538227617740631e-02</internalNodes>
          <leafValues>
            3.6324888467788696e-01 -5.0905946642160416e-02</leafValues></_>
        <_>
          <internalNodes>
            0 -1 406 9.2817016411572695e-04</internalNodes>
          <leafValues>
            -9.4922080636024475e-02 1.8695671856403351e-01</leafValues></_>
        <_>
          <internalNodes>
            0 -1 605 -3.8336655125021935e-03</internalNodes>
          <leafValues>
